{"learner":{"attributes":{"scikit_learn":"{\"_estimator_type\": \"classifier\"}"},"feature_names":[],"feature_types":[],"gradient_booster":{"model":{"cats":{"enc":[],"feature_segments":[],"sorted_idx":[]},"gbtree_model_param":{"num_parallel_tree":"1","num_trees":"200"},"iteration_indptr":[0,1,2,3,4,5,6,7,8,9,10,11,12,13,14,15,16,17,18,19,20,21,22,23,24,25,26,27,28,29,30,31,32,33,34,35,36,37,38,39,40,41,42,43,44,45,46,47,48,49,50,51,52,53,54,55,56,57,58,59,60,61,62,63,64,65,66,67,68,69,70,71,72,73,74,75,76,77,78,79,80,81,82,83,84,85,86,87,88,89,90,91,92,93,94,95,96,97,98,99,100,101,102,103,104,105,106,107,108,109,110,111,112,113,114,115,116,117,118,119,120,121,122,123,124,125,126,127,128,129,130,131,132,133,134,135,136,137,138,139,140,141,142,143,144,145,146,147,148,149,150,151,152,153,154,155,156,157,158,159,160,161,162,163,164,165,166,167,168,169,170,171,172,173,174,175,176,177,178,179,180,181,182,183,184,185,186,187,188,189,190,191,192,193,194,195,196,197,198,199,200],"tree_info":[0,0,0,0,0,0,0,0,0,0,0,0,0,0,0,0,0,0,0,0,0,0,0,0,0,0,0,0,0,0,0,0,0,0,0,0,0,0,0,0,0,0,0,0,0,0,0,0,0,0,0,0,0,0,0,0,0,0,0,0,0,0,0,0,0,0,0,0,0,0,0,0,0,0,0,0,0,0,0,0,0,0,0,0,0,0,0,0,0,0,0,0,0,0,0,0,0,0,0,0,0,0,0,0,0,0,0,0,0,0,0,0,0,0,0,0,0,0,0,0,0,0,0,0,0,0,0,0,0,0,0,0,0,0,0,0,0,0,0,0,0,0,0,0,0,0,0,0,0,0,0,0,0,0,0,0,0,0,0,0,0,0,0,0,0,0,0,0,0,0,0,0,0,0,0,0,0,0,0,0,0,0,0,0,0,0,0,0,0,0,0,0,0,0,0,0,0,0,0,0],"trees":[{"base_weights":[-5.510175E-2,-8.5084796E-1,9.9138165E-1,-1.3738738E0,-9.112008E-2,1.3796556E-2,1.3239768E0,-1.4613288E-2,8.687224E-3,-7.563112E-3,4.8462045E-3,-8.465558E-3,8.766404E-3,9.75654E-3,1.6729703E-2],"categories":[],"categories_nodes":[],"categories_segments":[],"categories_sizes":[],"default_left":[0,0,0,0,0,0,0,0,0,0,0,0,0,0,0],"id":0,"left_children":[1,3,5,7,9,11,13,-1,-1,-1,-1,-1,-1,-1,-1],"loss_changes":[1.3375038E2,3.6114174E1,2.2547058E1,1.1849297E1,1.5018098E1,1.45709915E1,4.661461E0,0E0,0E0,0E0,0E0,0E0,0E0,0E0,0E0],"parents":[2147483647,0,0,1,1,2,2,3,3,4,4,5,5,6,6],"right_children":[2,4,6,8,10,12,14,-1,-1,-1,-1,-1,-1,-1,-1],"split_conditions":[2.2486505E-1,-2.0014292E-1,-2.2575417E-1,1.7093289E0,-4.4105363E-1,7.956525E-1,1.2078879E0,-1.4613288E-2,8.687224E-3,-7.563112E-3,4.8462045E-3,-8.465558E-3,8.766404E-3,9.75654E-3,1.6729703E-2],"split_indices":[1,7,5,5,1,1,1,0,0,0,0,0,0,0,0],"split_type":[0,0,0,0,0,0,0,0,0,0,0,0,0,0,0],"sum_hessian":[1.586028E2,9.0200935E1,6.840187E1,5.2943924E1,3.7257008E1,1.7628504E1,5.0773365E1,5.1292057E1,1.6518692E0,1.7140186E1,2.0116823E1,8.836449E0,8.792056E0,2.7310747E1,2.3462616E1],"tree_param":{"num_deleted":"0","num_feature":"8","num_nodes":"15","size_leaf_vector":"1"}},{"base_weights":[-1.4845149E-2,-5.398799E-1,1.3008759E0,-1.6377208E0,-1.9574603E-1,4.8631117E-1,1.5273342E0,-1.745387E-2,-6.994595E-3,-8.4328735E-3,4.077399E-3,-6.376019E-4,9.0829255E-3,1.5674334E-2,3.4921195E-3],"categories":[],"categories_nodes":[],"categories_segments":[],"categories_sizes":[],"default_left":[0,0,0,0,0,0,0,0,0,0,0,0,0,0,0],"id":1,"left_children":[1,3,5,7,9,11,13,-1,-1,-1,-1,-1,-1,-1,-1],"loss_changes":[1.0937517E2,4.2428295E1,7.588379E0,1.4933777E0,3.445233E1,2.678971E0,1.1000443E0,0E0,0E0,0E0,0E0,0E0,0E0,0E0,0E0],"parents":[2147483647,0,0,1,1,2,2,3,3,4,4,5,5,6,6],"right_children":[2,4,6,8,10,12,14,-1,-1,-1,-1,-1,-1,-1,-1],"split_conditions":[7.6394206E-1,-5.8221686E-1,1.0810462E0,4.1512755E-1,-2.0014292E-1,5.6103384E-1,4.0068617E0,-1.745387E-2,-6.994595E-3,-8.4328735E-3,4.077399E-3,-6.376019E-4,9.0829255E-3,1.5674334E-2,3.4921195E-3],"split_indices":[1,5,1,1,7,7,4,0,0,0,0,0,0,0,0],"split_type":[0,0,0,0,0,0,0,0,0,0,0,0,0,0,0],"sum_hessian":[1.5631465E2,1.1215084E2,4.4163807E1,2.586822E1,8.628262E1,1.0291827E1,3.387198E1,2.24337E1,3.4345179E0,4.143039E1,4.4852234E1,4.836344E0,5.4554834E0,3.243747E1,1.4345121E0],"tree_param":{"num_deleted":"0","num_feature":"8","num_nodes":"15","size_leaf_vector":"1"}},{"base_weights":[1.23117685E-1,-6.9999796E-1,1.1291132E0,-1.3876466E0,-1.0967862E-1,5.691393E-1,1.7174536E0,-1.5890703E-2,-3.8844687E-3,-1.119411E-2,1.6898366E-3,1.8734402E-3,1.2641989E-2,1.7654704E-2,3.4092476E-3],"categories":[],"categories_nodes":[],"categories_segments":[],"categories_sizes":[],"default_left":[0,0,0,0,0,0,0,0,0,0,0,0,0,0,0],"id":2,"left_children":[1,3,5,7,9,11,13,-1,-1,-1,-1,-1,-1,-1,-1],"loss_changes":[1.3573141E2,3.648123E1,2.3309029E1,7.7553024E0,1.4157967E1,1.0182851E1,1.7413864E0,0E0,0E0,0E0,0E0,0E0,0E0,0E0,0E0],"parents":[2147483647,0,0,1,1,2,2,3,3,4,4,5,5,6,6],"right_children":[2,4,6,8,10,12,14,-1,-1,-1,-1,-1,-1,-1,-1],"split_conditions":[2.2486505E-1,-4.538685E-1,1.0810462E0,5.7413745E-1,-8.215786E-1,7.714908E-1,2.5062633E0,-1.5890703E-2,-3.8844687E-3,-1.119411E-2,1.6898366E-3,1.8734402E-3,1.2641989E-2,1.7654704E-2,3.4092476E-3],"split_indices":[1,7,1,2,1,3,7,0,0,0,0,0,0,0,0],"split_type":[0,0,0,0,0,0,0,0,0,0,0,0,0,0,0],"sum_hessian":[1.619623E2,8.924517E1,7.2717125E1,4.0600258E1,4.8644917E1,3.8264698E1,3.4452423E1,3.329761E1,7.302646E0,9.86868E0,3.8776237E1,2.5517506E1,1.2747194E1,3.3018116E1,1.4343066E0],"tree_param":{"num_deleted":"0","num_feature":"8","num_nodes":"15","size_leaf_vector":"1"}},{"base_weights":[4.8639E-2,-7.529087E-1,9.7362024E-1,-1.3510355E0,-1.0411559E-1,-4.7657426E-2,1.3359078E0,-1.7967707E-2,-8.39927E-3,-1.522625E-2,2.3120174E-3,-6.8882224E-3,1.1772709E-2,9.667334E-3,1.7260317E-2],"categories":[],"categories_nodes":[],"categories_segments":[],"categories_sizes":[],"default_left":[0,0,0,0,0,0,0,0,0,0,0,0,0,0,0],"id":3,"left_children":[1,3,5,7,9,11,13,-1,-1,-1,-1,-1,-1,-1,-1],"loss_changes":[1.2258703E2,3.4247456E1,2.8456276E1,8.976112E0,2.1086039E1,1.7350534E1,6.4943924E0,0E0,0E0,0E0,0E0,0E0,0E0,0E0,0E0],"parents":[2147483647,0,0,1,1,2,2,3,3,4,4,5,5,6,6],"right_children":[2,4,6,8,10,12,14,-1,-1,-1,-1,-1,-1,-1,-1],"split_conditions":[1.2973382E-1,-3.692933E-1,-2.3848498E-1,-1.1117688E-1,-6.7133254E-1,9.85915E-1,1.1127566E0,-1.7967707E-2,-8.39927E-3,-1.522625E-2,2.3120174E-3,-6.8882224E-3,1.1772709E-2,9.667334E-3,1.7260317E-2],"split_indices":[1,7,5,5,5,1,1,0,0,0,0,0,0,0,0],"split_type":[0,0,0,0,0,0,0,0,0,0,0,0,0,0,0],"sum_hessian":[1.6335292E2,8.7615364E1,7.573756E1,4.5024548E1,4.2590816E1,2.0059341E1,5.5678215E1,2.2706701E1,2.2317844E1,7.4660354E0,3.512478E1,1.3454505E1,6.6048355E0,3.0394197E1,2.5284018E1],"tree_param":{"num_deleted":"0","num_feature":"8","num_nodes":"15","size_leaf_vector":"1"}},{"base_weights":[1.19203115E-2,-7.0121413E-1,9.8871547E-1,-9.374675E-1,3.3235407E-1,4.0953675E-1,1.5439487E-2,-1.2355133E-2,-1.3679517E-3,-9.449567E-3,6.115958E-3,5.9769856E-4,1.1678595E-2],"categories":[],"categories_nodes":[],"categories_segments":[],"categories_sizes":[],"default_left":[0,0,0,0,0,0,0,0,0,0,0,0,0],"id":4,"left_children":[1,3,5,7,9,11,-1,-1,-1,-1,-1,-1,-1],"loss_changes":[1.1522333E2,2.3660244E1,2.1812973E1,1.8466316E1,7.186628E0,9.35215E0,0E0,0E0,0E0,0E0,0E0,0E0,0E0],"parents":[2147483647,0,0,1,1,2,2,3,3,4,4,5,5],"right_children":[2,4,6,8,10,12,-1,-1,-1,-1,-1,-1,-1],"split_conditions":[2.2486505E-1,9.60541E-1,1.0810462E0,-1.8737033E-1,-9.801307E-1,8.3460814E-1,1.5439487E-2,-1.2355133E-2,-1.3679517E-3,-9.449567E-3,6.115958E-3,5.9769856E-4,1.1678595E-2],"split_indices":[1,0,1,1,1,3,0,0,0,0,0,0,0],"split_type":[0,0,0,0,0,0,0,0,0,0,0,0,0],"sum_hessian":[1.6341615E2,9.461914E1,6.879701E1,7.70907E1,1.752844E1,3.4522873E1,3.427414E1,5.5782776E1,2.1307922E1,2.7168744E0,1.4811565E1,2.4364069E1,1.0158803E1],"tree_param":{"num_deleted":"0","num_feature":"8","num_nodes":"13","size_leaf_vector":"1"}},{"base_weights":[1.0796815E-2,-8.0418026E-1,5.7061625E-1,-1.0435886E0,7.988905E-1,-6.165486E-1,7.990254E-1,-1.3817848E-2,-3.617203E-3,-5.4485485E-4,1.0296549E-2,-1.2248526E-2,-7.135437E-4,4.7825365E-3,1.2372725E-2],"categories":[],"categories_nodes":[],"categories_segments":[],"categories_sizes":[],"default_left":[0,0,0,0,0,0,0,0,0,0,0,0,0,0,0],"id":5,"left_children":[1,3,5,7,9,11,13,-1,-1,-1,-1,-1,-1,-1,-1],"loss_changes":[7.5455734E1,2.6682251E1,2.7074198E1,1.3113533E1,1.891058E0,5.3455644E0,1.1026615E1,0E0,0E0,0E0,0E0,0E0,0E0,0E0,0E0],"parents":[2147483647,0,0,1,1,2,2,3,3,4,4,5,5,6,6],"right_children":[2,4,6,8,10,12,14,-1,-1,-1,-1,-1,-1,-1,-1],"split_conditions":[-3.692933E-1,1.2764814E0,-5.8221686E-1,7.445254E-2,-8.7674445E-1,6.45609E-1,1.5323298E-1,-1.3817848E-2,-3.617203E-3,-5.4485485E-4,1.0296549E-2,-1.2248526E-2,-7.135437E-4,4.7825365E-3,1.2372725E-2],"split_indices":[7,5,5,6,7,7,6,0,0,0,0,0,0,0,0],"split_type":[0,0,0,0,0,0,0,0,0,0,0,0,0,0,0],"sum_hessian":[1.6338028E2,6.635098E1,9.7029305E1,5.803311E1,8.317869E0,1.5381919E1,8.1647385E1,3.8106438E1,1.9926674E1,1.9330955E0,6.3847737E0,6.6809587E0,8.70096E0,4.8349567E1,3.329782E1],"tree_param":{"num_deleted":"0","num_feature":"8","num_nodes":"15","size_leaf_vector":"1"}},{"base_weights":[1.3509199E-2,-7.374016E-1,9.816884E-1,-1.3196718E0,-7.3213786E-2,-1.9236619E-4,1.3060762E0,-1.7061135E-2,-8.438761E-3,-1.3202787E-2,2.392696E-3,-8.864494E-3,9.863049E-3,9.882226E-3,1.6362594E-2],"categories":[],"categories_nodes":[],"categories_segments":[],"categories_sizes":[],"default_left":[0,0,0,0,0,0,0,0,0,0,0,0,0,0,0],"id":6,"left_children":[1,3,5,7,9,11,13,-1,-1,-1,-1,-1,-1,-1,-1],"loss_changes":[1.1810689E2,3.52911E1,2.2600197E1,7.5145264E0,1.7385601E1,1.7153833E1,3.980507E0,0E0,0E0,0E0,0E0,0E0,0E0,0E0,0E0],"parents":[2147483647,0,0,1,1,2,2,3,3,4,4,5,5,6,6],"right_children":[2,4,6,8,10,12,14,-1,-1,-1,-1,-1,-1,-1,-1],"split_conditions":[2.2486505E-1,-2.8471813E-1,-2.2575417E-1,-1.1117688E-1,-6.7133254E-1,7.956525E-1,1.1761775E0,-1.7061135E-2,-8.438761E-3,-1.3202787E-2,2.392696E-3,-8.864494E-3,9.863049E-3,9.882226E-3,1.6362594E-2],"split_indices":[1,7,5,5,5,1,1,0,0,0,0,0,0,0,0],"split_type":[0,0,0,0,0,0,0,0,0,0,0,0,0,0,0],"sum_hessian":[1.6045856E2,9.050336E1,6.99552E1,4.7699757E1,4.2803596E1,1.7620275E1,5.2334927E1,2.4894558E1,2.28052E1,7.930256E0,3.487334E1,9.335128E0,8.285147E0,2.8699795E1,2.3635134E1],"tree_param":{"num_deleted":"0","num_feature":"8","num_nodes":"15","size_leaf_vector":"1"}},{"base_weights":[1.7384216E-3,-6.600417E-1,1.1399565E0,-1.2449273E0,-6.450361E-2,2.5597245E-1,1.4194561E0,-1.473398E-2,-2.7908974E-3,-1.3550224E-2,2.2353972E-3,-4.8292023E-3,8.459227E-3,1.1586145E-2,1.6099522E-2],"categories":[],"categories_nodes":[],"categories_segments":[],"categories_sizes":[],"default_left":[0,0,0,0,0,0,0,0,0,0,0,0,0,0,0],"id":7,"left_children":[1,3,5,7,9,11,13,-1,-1,-1,-1,-1,-1,-1,-1],"loss_changes":[1.23078735E2,3.5909946E1,1.4479164E1,1.107972E1,1.9725847E1,7.231031E0,3.916855E-1,0E0,0E0,0E0,0E0,0E0,0E0,0E0,0E0],"parents":[2147483647,0,0,1,1,2,2,3,3,4,4,5,5,6,6],"right_children":[2,4,6,8,10,12,14,-1,-1,-1,-1,-1,-1,-1,-1],"split_conditions":[3.8341713E-1,-3.692933E-1,-2.2575417E-1,8.9772546E-1,-5.8221686E-1,7.956525E-1,1.2078879E0,-1.473398E-2,-2.7908974E-3,-1.3550224E-2,2.2353972E-3,-4.8292023E-3,8.459227E-3,1.1586145E-2,1.6099522E-2],"split_indices":[1,7,5,3,5,1,1,0,0,0,0,0,0,0,0],"split_type":[0,0,0,0,0,0,0,0,0,0,0,0,0,0,0],"sum_hessian":[1.6139804E2,1.0232474E2,5.9073303E1,5.1073936E1,5.1250797E1,1.4651208E1,4.4422096E1,4.087853E1,1.019541E1,8.675915E0,4.2574883E1,6.585063E0,8.066145E0,2.1738379E1,2.2683718E1],"tree_param":{"num_deleted":"0","num_feature":"8","num_nodes":"15","size_leaf_vector":"1"}},{"base_weights":[-3.1909775E-2,-8.1041217E-1,8.202802E-1,-1.0686395E0,3.596323E-2,3.6341769E-1,1.3927603E0,-1.7262748E-2,-7.7134627E-3,-5.2395025E-3,5.6589264E-3,-7.011885E-3,6.1385194E-3,1.4592908E-2,8.070661E-4],"categories":[],"categories_nodes":[],"categories_segments":[],"categories_sizes":[],"default_left":[0,0,0,0,0,0,0,0,0,0,0,0,0,0,0],"id":8,"left_children":[1,3,5,7,9,11,13,-1,-1,-1,-1,-1,-1,-1,-1],"loss_changes":[1.06342285E2,1.8341854E1,1.9513157E1,1.12204895E1,6.392563E0,1.2140921E1,2.8169327E0,0E0,0E0,0E0,0E0,0E0,0E0,0E0,0E0],"parents":[2147483647,0,0,1,1,2,2,3,3,4,4,5,5,6,6],"right_children":[2,4,6,8,10,12,14,-1,-1,-1,-1,-1,-1,-1,-1],"split_conditions":[1.2973382E-1,4.9259484E-1,1.0810462E0,-8.215786E-1,5.1902163E-1,-7.075941E-1,2.2525377E0,-1.7262748E-2,-7.7134627E-3,-5.2395025E-3,5.6589264E-3,-7.011885E-3,6.1385194E-3,1.4592908E-2,8.070661E-4],"split_indices":[1,6,1,1,3,7,7,0,0,0,0,0,0,0,0],"split_type":[0,0,0,0,0,0,0,0,0,0,0,0,0,0,0],"sum_hessian":[1.5828917E2,8.274658E1,7.554259E1,6.320137E1,1.9545208E1,4.2923054E1,3.2619534E1,1.8179747E1,4.5021626E1,9.509223E0,1.0035985E1,7.8314314E0,3.509162E1,3.093851E1,1.6810242E0],"tree_param":{"num_deleted":"0","num_feature":"8","num_nodes":"15","size_leaf_vector":"1"}},{"base_weights":[-2.6840227E-2,-7.803914E-1,9.2122173E-1,-1.7369797E-2,-4.2361867E-1,-3.128774E-1,1.209251E0,-7.682714E-3,4.89003E-3,-1.0899956E-2,7.378149E-3,7.1881614E-3,1.6209882E-2],"categories":[],"categories_nodes":[],"categories_segments":[],"categories_sizes":[],"default_left":[0,0,0,0,0,0,0,0,0,0,0,0,0],"id":9,"left_children":[1,3,5,-1,7,9,11,-1,-1,-1,-1,-1,-1],"loss_changes":[1.1548795E2,2.999591E1,2.5829327E1,0E0,2.1420938E1,1.2515714E1,1.0598755E1,0E0,0E0,0E0,0E0,0E0,0E0],"parents":[2147483647,0,0,1,1,2,2,4,4,5,5,6,6],"right_children":[2,4,6,-1,8,10,12,-1,-1,-1,-1,-1,-1],"split_conditions":[2.2486505E-1,-5.9494764E-1,-3.1486982E-1,-1.7369797E-2,4.5320463E-1,7.956525E-1,1.1761775E0,-7.682714E-3,4.89003E-3,-1.0899956E-2,7.378149E-3,7.1881614E-3,1.6209882E-2],"split_indices":[1,5,5,0,6,1,1,0,0,0,0,0,0],"split_type":[0,0,0,0,0,0,0,0,0,0,0,0,0],"sum_hessian":[1.59648E2,8.904719E1,7.060081E1,2.3138649E1,6.590854E1,1.3343326E1,5.7257484E1,4.7956043E1,1.7952494E1,7.6487284E0,5.6945972E0,2.738456E1,2.9872923E1],"tree_param":{"num_deleted":"0","num_feature":"8","num_nodes":"13","size_leaf_vector":"1"}},{"base_weights":[-6.14549E-3,-1.0778048E0,3.9982954E-1,-1.5567671E0,-3.2906687E-1,-9.645655E-2,8.0355036E-1,-1.6074922E-2,-2.4631696E-3,4.84269E-4,-1.0864305E-2,-3.5642122E-3,9.636825E-3,5.8515477E-3,1.2256995E-2],"categories":[],"categories_nodes":[],"categories_segments":[],"categories_sizes":[],"default_left":[0,0,0,0,0,0,0,0,0,0,0,0,0,0,0],"id":10,"left_children":[1,3,5,7,9,11,13,-1,-1,-1,-1,-1,-1,-1,-1],"loss_changes":[7.27844E1,1.597052E1,2.4389734E1,1.4495163E0,5.54167E0,1.5590671E1,5.4615555E0,0E0,0E0,0E0,0E0,0E0,0E0,0E0,0E0],"parents":[2147483647,0,0,1,1,2,2,3,3,4,4,5,5,6,6],"right_children":[2,4,6,8,10,12,14,-1,-1,-1,-1,-1,-1,-1,-1],"split_conditions":[-3.912547E-1,-1.1556773E-1,-2.0014292E-1,7.714908E-1,1.9142369E0,1.2764814E0,5.8833796E-1,-1.6074922E-2,-2.4631696E-3,4.84269E-4,-1.0864305E-2,-3.5642122E-3,9.636825E-3,5.8515477E-3,1.2256995E-2],"split_indices":[5,7,7,3,7,5,4,0,0,0,0,0,0,0,0],"split_type":[0,0,0,0,0,0,0,0,0,0,0,0,0,0,0],"sum_hessian":[1.653042E2,4.4962105E1,1.203421E2,2.6762886E1,1.8199219E1,5.432389E1,6.601821E1,2.5547325E1,1.2155619E0,1.2770206E1,5.429013E0,4.4159103E1,1.0164788E1,4.508168E1,2.0936527E1],"tree_param":{"num_deleted":"0","num_feature":"8","num_nodes":"15","size_leaf_vector":"1"}},{"base_weights":[-8.31672E-3,-6.986686E-1,6.0105014E-1,-1.0112818E0,3.3052003E-1,2.4962802E-1,1.1901147E0,-1.3217335E-2,-2.754976E-3,-3.3791908E-3,1.1131984E-2,4.5625595E-3,-1.0184502E-2,-2.311448E-3,1.3088577E-2],"categories":[],"categories_nodes":[],"categories_segments":[],"categories_sizes":[],"default_left":[0,0,0,0,0,0,0,0,0,0,0,0,0,0,0],"id":11,"left_children":[1,3,5,7,9,11,13,-1,-1,-1,-1,-1,-1,-1,-1],"loss_changes":[6.458495E1,2.3491138E1,1.6585318E1,1.2302532E1,9.543348E0,1.4180291E1,5.400551E0,0E0,0E0,0E0,0E0,0E0,0E0,0E0,0E0],"parents":[2147483647,0,0,1,1,2,2,3,3,4,4,5,5,6,6],"right_children":[2,4,6,8,10,12,14,-1,-1,-1,-1,-1,-1,-1,-1],"split_conditions":[-2.0014292E-1,7.714908E-1,3.0965394E-1,-5.384437E-1,-1.891589E-1,-4.3350342E-1,-4.5916823E-1,-1.3217335E-2,-2.754976E-3,-3.3791908E-3,1.1131984E-2,4.5625595E-3,-1.0184502E-2,-2.311448E-3,1.3088577E-2],"split_indices":[7,3,4,7,6,4,2,0,0,0,0,0,0,0,0],"split_type":[0,0,0,0,0,0,0,0,0,0,0,0,0,0,0],"sum_hessian":[1.515278E2,7.0974365E1,8.055343E1,5.445209E1,1.6522272E1,5.1345615E1,2.9207817E1,3.773436E1,1.6717735E1,9.217989E0,7.304284E0,4.470184E1,6.6437736E0,2.1791027E0,2.7028713E1],"tree_param":{"num_deleted":"0","num_feature":"8","num_nodes":"15","size_leaf_vector":"1"}},{"base_weights":[-4.76711E-2,-8.7001544E-1,8.384169E-1,-1.3343742E0,-3.1822792E-1,-3.9690232E-1,1.2126501E0,-1.4612824E-2,-5.854231E-4,-1.4222988E-2,-3.7774164E-4,-1.6201282E-2,1.9799985E-3,8.043805E-3,1.5914563E-2],"categories":[],"categories_nodes":[],"categories_segments":[],"categories_sizes":[],"default_left":[0,0,0,0,0,0,0,0,0,0,0,0,0,0,0],"id":12,"left_children":[1,3,5,7,9,11,13,-1,-1,-1,-1,-1,-1,-1,-1],"loss_changes":[1.1700385E2,2.0907082E1,3.6225132E1,7.1835556E0,1.2133173E1,1.3950883E1,7.935356E0,0E0,0E0,0E0,0E0,0E0,0E0,0E0,0E0],"parents":[2147483647,0,0,1,1,2,2,3,3,4,4,5,5,6,6],"right_children":[2,4,6,8,10,12,14,-1,-1,-1,-1,-1,-1,-1,-1],"split_conditions":[1.2973382E-1,-3.692933E-1,-2.639466E-1,6.8290645E-1,-6.7133254E-1,-4.538685E-1,1.0810462E0,-1.4612824E-2,-5.854231E-4,-1.4222988E-2,-3.7774164E-4,-1.6201282E-2,1.9799985E-3,8.043805E-3,1.5914563E-2],"split_indices":[1,7,5,2,5,7,1,0,0,0,0,0,0,0,0],"split_type":[0,0,0,0,0,0,0,0,0,0,0,0,0,0,0],"sum_hessian":[1.5857088E2,8.225308E1,7.63178E1,4.38949E1,3.835818E1,1.7730387E1,5.8587414E1,3.979145E1,4.1034503E0,6.9452357E0,3.1412943E1,5.2375956E0,1.2492792E1,2.9700396E1,2.8887018E1],"tree_param":{"num_deleted":"0","num_feature":"8","num_nodes":"15","size_leaf_vector":"1"}},{"base_weights":[-9.679441E-2,-9.156461E-1,7.9245335E-1,-1.4492522E0,-5.2963454E-1,2.9446495E-1,1.3882298E0,6.458025E-3,-1.5448675E-2,-1.387208E-2,-2.502387E-3,-4.6434356E-3,6.3205543E-3,6.3253716E-3,1.5026911E-2],"categories":[],"categories_nodes":[],"categories_segments":[],"categories_sizes":[],"default_left":[0,0,0,0,0,0,0,0,0,0,0,0,0,0,0],"id":13,"left_children":[1,3,5,7,9,11,13,-1,-1,-1,-1,-1,-1,-1,-1],"loss_changes":[1.1484569E2,1.6134003E1,2.2041214E1,7.7818756E0,1.1438502E1,1.1176963E1,2.0061874E0,0E0,0E0,0E0,0E0,0E0,0E0,0E0,0E0],"parents":[2147483647,0,0,1,1,2,2,3,3,4,4,5,5,6,6],"right_children":[2,4,6,8,10,12,14,-1,-1,-1,-1,-1,-1,-1,-1],"split_conditions":[1.2973382E-1,-6.630265E-1,1.0810462E0,-2.0582848E0,-6.331401E-1,-2.512158E-1,-2.639466E-1,6.458025E-3,-1.5448675E-2,-1.387208E-2,-2.502387E-3,-4.6434356E-3,6.3205543E-3,6.3253716E-3,1.5026911E-2],"split_indices":[1,1,1,1,5,5,5,0,0,0,0,0,0,0,0],"split_type":[0,0,0,0,0,0,0,0,0,0,0,0,0,0,0],"sum_hessian":[1.557235E2,8.1055214E1,7.4668274E1,3.2866924E1,4.818829E1,4.148592E1,3.3182354E1,1.18338E0,3.1683544E1,1.0867311E1,3.732098E1,1.2658258E1,2.8827663E1,5.223323E0,2.795903E1],"tree_param":{"num_deleted":"0","num_feature":"8","num_nodes":"15","size_leaf_vector":"1"}},{"base_weights":[4.7750436E-2,-6.179389E-1,1.0370436E0,-1.6747583E0,-2.931256E-1,2.7966484E-1,1.2491826E0,-4.617824E-3,-1.7525986E-2,-1.00064855E-2,1.7214824E-3,-3.7159636E-3,9.134415E-3,6.8316227E-3,1.4159754E-2],"categories":[],"categories_nodes":[],"categories_segments":[],"categories_sizes":[],"default_left":[0,0,0,0,0,0,0,0,0,0,0,0,0,0,0],"id":14,"left_children":[1,3,5,7,9,11,13,-1,-1,-1,-1,-1,-1,-1,-1],"loss_changes":[1.054374E2,3.23767E1,9.994644E0,1.2960052E0,2.4680944E1,6.685729E0,3.75354E0,0E0,0E0,0E0,0E0,0E0,0E0,0E0,0E0],"parents":[2147483647,0,0,1,1,2,2,3,3,4,4,5,5,6,6],"right_children":[2,4,6,8,10,12,14,-1,-1,-1,-1,-1,-1,-1,-1],"split_conditions":[2.8828588E-1,-6.331401E-1,-2.512158E-1,-1.7534513E0,-5.384437E-1,1.0810462E0,-5.4064083E-1,-4.617824E-3,-1.7525986E-2,-1.00064855E-2,1.7214824E-3,-3.7159636E-3,9.134415E-3,6.8316227E-3,1.4159754E-2],"split_indices":[1,5,5,5,7,1,6,0,0,0,0,0,0,0,0],"split_type":[0,0,0,0,0,0,0,0,0,0,0,0,0,0,0],"sum_hessian":[1.5812943E2,9.474886E1,6.3380558E1,2.1297804E1,7.345106E1,1.4375492E1,4.9005066E1,1.702372E0,1.9595432E1,2.8683128E1,4.476793E1,7.293973E0,7.081519E0,1.2313709E1,3.6691357E1],"tree_param":{"num_deleted":"0","num_feature":"8","num_nodes":"15","size_leaf_vector":"1"}},{"base_weights":[9.209039E-2,-6.418101E-1,9.7653097E-1,-1.264365E0,-2.4334023E-2,4.58483E-1,1.4818735E0,-1.4319261E-2,-4.72278E-3,-8.336254E-3,1.5177695E-3,-2.6026107E-3,8.349651E-3,1.5246864E-2,2.3889907E-3],"categories":[],"categories_nodes":[],"categories_segments":[],"categories_sizes":[],"default_left":[0,0,0,0,0,0,0,0,0,0,0,0,0,0,0],"id":15,"left_children":[1,3,5,7,9,11,13,-1,-1,-1,-1,-1,-1,-1,-1],"loss_changes":[1.0611345E2,3.434314E1,1.8718086E1,5.2308197E0,6.6701913E0,1.0509533E1,1.6078796E0,0E0,0E0,0E0,0E0,0E0,0E0,0E0,0E0],"parents":[2147483647,0,0,1,1,2,2,3,3,4,4,5,5,6,6],"right_children":[2,4,6,8,10,12,14,-1,-1,-1,-1,-1,-1,-1,-1],"split_conditions":[2.2486505E-1,-3.692933E-1,1.0810462E0,5.895554E-1,-8.315224E-1,-4.9216056E-1,4.313414E0,-1.4319261E-2,-4.72278E-3,-8.336254E-3,1.5177695E-3,-2.6026107E-3,8.349651E-3,1.5246864E-2,2.3889907E-3],"split_indices":[1,7,1,6,6,6,4,0,0,0,0,0,0,0,0],"split_type":[0,0,0,0,0,0,0,0,0,0,0,0,0,0,0],"sum_hessian":[1.6151442E2,8.8419266E1,7.3095146E1,4.3506893E1,4.4912376E1,3.7035633E1,3.6059513E1,3.5243546E1,8.263347E0,7.3594785E0,3.7552895E1,1.283705E1,2.4198584E1,3.4639744E1,1.4197705E0],"tree_param":{"num_deleted":"0","num_feature":"8","num_nodes":"15","size_leaf_vector":"1"}},{"base_weights":[5.4123932E-3,-7.055785E-1,1.0182213E0,-1.268688E0,-1.5132143E-1,5.62808E-1,1.469958E0,-1.3546329E-2,7.596227E-4,-7.6340567E-3,2.5061741E-3,1.4128481E-2,4.3897475E-3,1.5491014E-2,3.9629074E-4],"categories":[],"categories_nodes":[],"categories_segments":[],"categories_sizes":[],"default_left":[0,0,0,0,0,0,0,0,0,0,0,0,0,0,0],"id":16,"left_children":[1,3,5,7,9,11,13,-1,-1,-1,-1,-1,-1,-1,-1],"loss_changes":[1.1143667E2,2.8187393E1,1.2303459E1,5.299736E0,1.1744376E1,2.8960247E0,3.4956284E0,0E0,0E0,0E0,0E0,0E0,0E0,0E0,0E0],"parents":[2147483647,0,0,1,1,2,2,3,3,4,4,5,5,6,6],"right_children":[2,4,6,8,10,12,14,-1,-1,-1,-1,-1,-1,-1,-1],"split_conditions":[2.8828588E-1,-3.692933E-1,1.1761775E0,2.2486505E-1,-4.093432E-1,-8.398598E-1,2.5062633E0,-1.3546329E-2,7.596227E-4,-7.6340567E-3,2.5061741E-3,1.4128481E-2,4.3897475E-3,1.5491014E-2,3.9629074E-4],"split_indices":[1,7,1,1,1,2,7,0,0,0,0,0,0,0,0],"split_type":[0,0,0,0,0,0,0,0,0,0,0,0,0,0,0],"sum_hessian":[1.5275443E2,8.992823E1,6.28262E1,4.3968502E1,4.5959732E1,3.2404175E1,3.042202E1,4.132005E1,2.6484501E0,1.7861067E1,2.8098663E1,2.7967684E0,2.9607409E1,2.874827E1,1.6737496E0],"tree_param":{"num_deleted":"0","num_feature":"8","num_nodes":"15","size_leaf_vector":"1"}},{"base_weights":[-3.2253433E-2,-6.898153E-1,8.1280607E-1,-1.6379608E0,-3.8125503E-1,-3.022705E-1,1.1134175E0,-1.7141126E-2,-4.8387423E-3,-5.0381175E-3,1.0958765E-2,-1.0074573E-2,4.395426E-3,7.677061E-3,1.4817847E-2],"categories":[],"categories_nodes":[],"categories_segments":[],"categories_sizes":[],"default_left":[0,0,0,0,0,0,0,0,0,0,0,0,0,0,0],"id":17,"left_children":[1,3,5,7,9,11,13,-1,-1,-1,-1,-1,-1,-1,-1],"loss_changes":[8.6686615E1,2.5035099E1,2.3226074E1,1.0365219E0,1.276739E1,8.439377E0,5.739113E0,0E0,0E0,0E0,0E0,0E0,0E0,0E0,0E0],"parents":[2147483647,0,0,1,1,2,2,3,3,4,4,5,5,6,6],"right_children":[2,4,6,8,10,12,14,-1,-1,-1,-1,-1,-1,-1,-1],"split_conditions":[2.2486505E-1,-6.331401E-1,-2.639466E-1,1.866489E0,1.7093289E0,7.956525E-1,1.1761775E0,-1.7141126E-2,-4.8387423E-3,-5.0381175E-3,1.0958765E-2,-1.0074573E-2,4.395426E-3,7.677061E-3,1.4817847E-2],"split_indices":[1,5,5,0,5,1,1,0,0,0,0,0,0,0,0],"split_type":[0,0,0,0,0,0,0,0,0,0,0,0,0,0,0],"sum_hessian":[1.5399226E2,8.6707054E1,6.728521E1,2.0231428E1,6.6475624E1,1.4286371E1,5.299884E1,1.8523884E1,1.7075446E0,6.199118E1,4.484446E0,7.1404104E0,7.1459603E0,2.8931139E1,2.4067701E1],"tree_param":{"num_deleted":"0","num_feature":"8","num_nodes":"15","size_leaf_vector":"1"}},{"base_weights":[4.3275017E-2,-5.842251E-1,1.1005588E0,-1.0993141E0,1.5041277E-2,6.120846E-1,1.433581E0,-1.4133726E-2,-4.9265763E-3,-1.0933712E-2,1.8732356E-3,6.9443607E-3,-4.720763E-3,1.4780726E-2,2.0996758E-3],"categories":[],"categories_nodes":[],"categories_segments":[],"categories_sizes":[],"default_left":[0,0,0,0,0,0,0,0,0,0,0,0,0,0,0],"id":18,"left_children":[1,3,5,7,9,11,13,-1,-1,-1,-1,-1,-1,-1,-1],"loss_changes":[1.086478E2,3.1752773E1,9.042236E0,9.8405E0,9.468347E0,2.6907043E0,1.6230621E0,0E0,0E0,0E0,0E0,0E0,0E0,0E0,0E0],"parents":[2147483647,0,0,1,1,2,2,3,3,4,4,5,5,6,6],"right_children":[2,4,6,8,10,12,14,-1,-1,-1,-1,-1,-1,-1,-1],"split_conditions":[4.1512755E-1,-2.8471813E-1,1.0810462E0,5.6272443E-2,-8.315224E-1,2.337113E0,2.7954075E0,-1.4133726E-2,-4.9265763E-3,-1.0933712E-2,1.8732356E-3,6.9443607E-3,-4.720763E-3,1.4780726E-2,2.0996758E-3],"split_indices":[1,7,1,6,6,7,6,0,0,0,0,0,0,0,0],"split_type":[0,0,0,0,0,0,0,0,0,0,0,0,0,0,0],"sum_hessian":[1.6179376E2,1.0181423E2,5.9979534E1,5.4303864E1,4.751037E1,2.5465275E1,3.451426E1,3.4904472E1,1.9399387E1,5.6720037E0,4.1838367E1,2.4001616E1,1.4636593E0,3.3102665E1,1.4115968E0],"tree_param":{"num_deleted":"0","num_feature":"8","num_nodes":"15","size_leaf_vector":"1"}},{"base_weights":[3.0048216E-2,-7.227267E-1,8.30478E-1,-1.5301855E0,-3.2504877E-1,-1.9793683E-1,1.1386422E0,-1.58625E-2,-1.8801691E-3,-8.025982E-3,2.227057E-3,-7.6229936E-3,5.8711986E-3,7.924814E-3,1.4946067E-2],"categories":[],"categories_nodes":[],"categories_segments":[],"categories_sizes":[],"default_left":[0,0,0,0,0,0,0,0,0,0,0,0,0,0,0],"id":19,"left_children":[1,3,5,7,9,11,13,-1,-1,-1,-1,-1,-1,-1,-1],"loss_changes":[9.589508E1,2.5845741E1,2.4665123E1,1.7185364E0,1.4889057E1,8.702584E0,6.1452637E0,0E0,0E0,0E0,0E0,0E0,0E0,0E0,0E0],"parents":[2147483647,0,0,1,1,2,2,3,3,4,4,5,5,6,6],"right_children":[2,4,6,8,10,12,14,-1,-1,-1,-1,-1,-1,-1,-1],"split_conditions":[1.2973382E-1,-5.185628E-1,-2.512158E-1,7.09101E-1,-2.0014292E-1,7.956525E-1,1.1127566E0,-1.58625E-2,-1.8801691E-3,-8.025982E-3,2.227057E-3,-7.6229936E-3,5.8711986E-3,7.924814E-3,1.4946067E-2],"split_indices":[1,5,5,4,7,1,1,0,0,0,0,0,0,0,0],"split_type":[0,0,0,0,0,0,0,0,0,0,0,0,0,0,0],"sum_hessian":[1.5715436E2,8.1038086E1,7.611628E1,2.5801678E1,5.5236404E1,1.7631985E1,5.8484295E1,2.4592552E1,1.2091264E0,2.926073E1,2.5975676E1,1.0274691E1,7.357294E0,3.1286123E1,2.719817E1],"tree_param":{"num_deleted":"0","num_feature":"8","num_nodes":"15","size_leaf_vector":"1"}},{"base_weights":[6.269326E-2,-7.401208E-1,9.048379E-1,-1.5346563E0,-4.3954456E-1,2.610304E-2,1.1974787E0,-2.9199328E-3,-1.6058423E-2,-7.4660825E-3,3.8460398E-3,-6.4721885E-3,7.984933E-3,8.913182E-3,1.4905857E-2],"categories":[],"categories_nodes":[],"categories_segments":[],"categories_sizes":[],"default_left":[0,0,0,0,0,0,0,0,0,0,0,0,0,0,0],"id":20,"left_children":[1,3,5,7,9,11,13,-1,-1,-1,-1,-1,-1,-1,-1],"loss_changes":[1.1048597E2,1.9316154E1,2.0469772E1,1.5279732E0,1.6010906E1,1.1406585E1,4.036278E0,0E0,0E0,0E0,0E0,0E0,0E0,0E0,0E0],"parents":[2147483647,0,0,1,1,2,2,3,3,4,4,5,5,6,6],"right_children":[2,4,6,8,10,12,14,-1,-1,-1,-1,-1,-1,-1,-1],"split_conditions":[1.2973382E-1,-5.8221686E-1,-2.512158E-1,-1.7534513E0,4.653247E-1,7.956525E-1,1.1761775E0,-2.9199328E-3,-1.6058423E-2,-7.4660825E-3,3.8460398E-3,-6.4721885E-3,7.984933E-3,8.913182E-3,1.4905857E-2],"split_indices":[1,5,5,5,6,1,1,0,0,0,0,0,0,0,0],"split_type":[0,0,0,0,0,0,0,0,0,0,0,0,0,0,0],"sum_hessian":[1.6142955E2,8.2706665E1,7.8722885E1,2.1573673E1,6.1132996E1,1.9939182E1,5.8783707E1,1.4453111E0,2.0128363E1,4.4607197E1,1.6525795E1,1.0739346E1,9.199838E0,3.072808E1,2.8055624E1],"tree_param":{"num_deleted":"0","num_feature":"8","num_nodes":"15","size_leaf_vector":"1"}},{"base_weights":[-2.497986E-2,-6.3877726E-1,1.0241963E0,-1.4781784E0,-3.661878E-1,1.4142777E-1,1.2762321E0,-1.7557647E-3,-1.6103566E-2,-1.1204711E-2,-1.7909173E-4,4.811122E-3,-9.683782E-3,7.7487486E-3,1.477859E-2],"categories":[],"categories_nodes":[],"categories_segments":[],"categories_sizes":[],"default_left":[0,0,0,0,0,0,0,0,0,0,0,0,0,0,0],"id":21,"left_children":[1,3,5,7,9,11,13,-1,-1,-1,-1,-1,-1,-1,-1],"loss_changes":[1.0440318E2,2.285653E1,1.3134949E1,3.976509E0,2.0607216E1,5.9007025E0,3.5484161E0,0E0,0E0,0E0,0E0,0E0,0E0,0E0,0E0],"parents":[2147483647,0,0,1,1,2,2,3,3,4,4,5,5,6,6],"right_children":[2,4,6,8,10,12,14,-1,-1,-1,-1,-1,-1,-1,-1],"split_conditions":[4.1512755E-1,-6.331401E-1,-2.639466E-1,-1.7534513E0,-6.630265E-1,3.3503398E-1,1.0810462E0,-1.7557647E-3,-1.6103566E-2,-1.1204711E-2,-1.7909173E-4,4.811122E-3,-9.683782E-3,7.7487486E-3,1.477859E-2],"split_indices":[1,5,5,5,1,6,1,0,0,0,0,0,0,0,0],"split_type":[0,0,0,0,0,0,0,0,0,0,0,0,0,0,0],"sum_hessian":[1.6010545E2,1.01257904E2,5.8847546E1,2.3737837E1,7.752007E1,1.3416543E1,4.5431004E1,2.401329E0,2.1336508E1,2.3786774E1,5.37333E1,1.0706144E1,2.710399E0,1.4419407E1,3.1011595E1],"tree_param":{"num_deleted":"0","num_feature":"8","num_nodes":"15","size_leaf_vector":"1"}},{"base_weights":[-4.6903724E-3,-5.603256E-1,5.342382E-1,-9.8917365E-1,8.598271E-2,1.4068258E-1,7.817684E-1,-1.7149684E-3,-1.1703349E-2,-2.878998E-3,6.288919E-3,2.9614752E-3,-1.0364078E-2,3.6722156E-3,1.0850174E-2],"categories":[],"categories_nodes":[],"categories_segments":[],"categories_sizes":[],"default_left":[0,0,0,0,0,0,0,0,0,0,0,0,0,0,0],"id":22,"left_children":[1,3,5,7,9,11,13,-1,-1,-1,-1,-1,-1,-1,-1],"loss_changes":[4.7127884E1,2.156173E1,7.6733265E0,6.7109833E0,6.6414275E0,6.1753464E0,5.7398205E0,0E0,0E0,0E0,0E0,0E0,0E0,0E0,0E0],"parents":[2147483647,0,0,1,1,2,2,3,3,4,4,5,5,6,6],"right_children":[2,4,6,8,10,12,14,-1,-1,-1,-1,-1,-1,-1,-1],"split_conditions":[-2.0014292E-1,4.7182392E-2,-5.194307E-1,-8.513551E-1,6.452562E-1,-5.9821117E-1,3.92787E-1,-1.7149684E-3,-1.1703349E-2,-2.878998E-3,6.288919E-3,2.9614752E-3,-1.0364078E-2,3.6722156E-3,1.0850174E-2],"split_indices":[7,6,6,0,3,6,3,0,0,0,0,0,0,0,0],"split_type":[0,0,0,0,0,0,0,0,0,0,0,0,0,0,0],"sum_hessian":[1.5538301E2,7.648613E1,7.889689E1,4.565918E1,3.0826948E1,3.1068499E1,4.782839E1,8.634363E0,3.7024815E1,1.8533375E1,1.2293574E1,2.8104929E1,2.9635687E0,2.1140253E1,2.6688137E1],"tree_param":{"num_deleted":"0","num_feature":"8","num_nodes":"15","size_leaf_vector":"1"}},{"base_weights":[-1.0669029E-1,-7.22115E-1,7.822418E-1,-1.29036E0,-1.0877015E-1,-1.5383825E-1,1.1364007E0,-1.5319897E-2,-7.922574E-3,-8.255089E-3,2.407346E-3,-1.1174421E-2,7.263273E-3,8.183194E-3,1.5034549E-2],"categories":[],"categories_nodes":[],"categories_segments":[],"categories_sizes":[],"default_left":[0,0,0,0,0,0,0,0,0,0,0,0,0,0,0],"id":23,"left_children":[1,3,5,7,9,11,13,-1,-1,-1,-1,-1,-1,-1,-1],"loss_changes":[8.733078E1,3.2704445E1,2.1843983E1,4.662735E0,1.1825254E1,1.6775383E1,4.320198E0,0E0,0E0,0E0,0E0,0E0,0E0,0E0,0E0],"parents":[2147483647,0,0,1,1,2,2,3,3,4,4,5,5,6,6],"right_children":[2,4,6,8,10,12,14,-1,-1,-1,-1,-1,-1,-1,-1],"split_conditions":[2.2486505E-1,-3.692933E-1,-2.512158E-1,5.6272443E-2,-6.630265E-1,7.956525E-1,1.2078879E0,-1.5319897E-2,-7.922574E-3,-8.255089E-3,2.407346E-3,-1.1174421E-2,7.263273E-3,8.183194E-3,1.5034549E-2],"split_indices":[1,7,5,6,1,1,1,0,0,0,0,0,0,0,0],"split_type":[0,0,0,0,0,0,0,0,0,0,0,0,0,0,0],"sum_hessian":[1.5760089E2,9.323806E1,6.436283E1,4.7825455E1,4.541261E1,1.7822275E1,4.6540558E1,3.0805864E1,1.7019588E1,1.4439403E1,3.0973207E1,8.37918E0,9.443095E0,2.666375E1,1.987681E1],"tree_param":{"num_deleted":"0","num_feature":"8","num_nodes":"15","size_leaf_vector":"1"}},{"base_weights":[7.756321E-3,-8.7306565E-1,3.5204533E-1,-1.3605243E-2,-3.5566184E-1,-1.0328398E-1,6.371908E-1,-4.859045E-3,8.509044E-3,-4.5294994E-3,1.1417943E-2,3.971538E-3,9.675084E-3],"categories":[],"categories_nodes":[],"categories_segments":[],"categories_sizes":[],"default_left":[0,0,0,0,0,0,0,0,0,0,0,0,0],"id":24,"left_children":[1,3,5,-1,7,9,11,-1,-1,-1,-1,-1,-1],"loss_changes":[4.918684E1,1.1012913E1,1.5204303E1,0E0,4.1011467E0,2.043956E1,5.311619E0,0E0,0E0,0E0,0E0,0E0,0E0],"parents":[2147483647,0,0,1,1,2,2,4,4,5,5,6,6],"right_children":[2,4,6,-1,8,10,12,-1,-1,-1,-1,-1,-1],"split_conditions":[-3.912547E-1,-4.538685E-1,-3.692933E-1,-1.3605243E-2,8.3460814E-1,1.2764814E0,7.445254E-2,-4.859045E-3,8.509044E-3,-4.5294994E-3,1.1417943E-2,3.971538E-3,9.675084E-3],"split_indices":[5,7,7,0,3,5,6,0,0,0,0,0,0],"split_type":[0,0,0,0,0,0,0,0,0,0,0,0,0],"sum_hessian":[1.6018153E2,4.4583687E1,1.1559785E2,2.2117107E1,2.2466581E1,4.4760555E1,7.0837296E1,2.0816797E1,1.6497837E0,3.5443E1,9.3175535E0,4.2300488E1,2.8536806E1],"tree_param":{"num_deleted":"0","num_feature":"8","num_nodes":"13","size_leaf_vector":"1"}},{"base_weights":[-2.1405559E-2,-6.763135E-1,8.4173703E-1,-1.5253862E0,-3.5118026E-1,-2.9065296E-2,1.0961777E0,-5.1566456E-3,-1.5864301E-2,-7.6441667E-3,1.7731405E-3,-6.681858E-3,6.3197105E-3,8.13145E-3,1.4033441E-2],"categories":[],"categories_nodes":[],"categories_segments":[],"categories_sizes":[],"default_left":[0,0,0,0,0,0,0,0,0,0,0,0,0,0,0],"id":25,"left_children":[1,3,5,7,9,11,13,-1,-1,-1,-1,-1,-1,-1,-1],"loss_changes":[9.208409E1,2.5028938E1,1.5605507E1,7.4399567E-1,1.50434675E1,7.5486336E0,3.5901031E0,0E0,0E0,0E0,0E0,0E0,0E0,0E0,0E0],"parents":[2147483647,0,0,1,1,2,2,3,3,4,4,5,5,6,6],"right_children":[2,4,6,8,10,12,14,-1,-1,-1,-1,-1,-1,-1,-1],"split_conditions":[2.2486505E-1,-5.5675524E-1,-2.512158E-1,-1.7534513E0,-3.7763283E-1,7.956525E-1,1.2078879E0,-5.1566456E-3,-1.5864301E-2,-7.6441667E-3,1.7731405E-3,-6.681858E-3,6.3197105E-3,8.13145E-3,1.4033441E-2],"split_indices":[1,5,5,5,1,1,1,0,0,0,0,0,0,0,0],"split_type":[0,0,0,0,0,0,0,0,0,0,0,0,0,0,0],"sum_hessian":[1.6089319E2,9.160471E1,6.9288475E1,2.4342825E1,6.7261894E1,1.5867846E1,5.3420628E1,1.9263687E0,2.2416456E1,3.74965E1,2.9765394E1,8.0621605E0,7.805685E0,2.9700716E1,2.3719913E1],"tree_param":{"num_deleted":"0","num_feature":"8","num_nodes":"15","size_leaf_vector":"1"}},{"base_weights":[2.7995786E-2,-8.489336E-1,4.5313913E-1,-1.1928328E0,2.1470813E-1,6.653588E-2,9.6865165E-1,-1.40805E-2,-7.239992E-3,9.716169E-3,-7.77178E-3,-3.8731007E-3,5.082252E-3,1.9222301E-3,1.0908775E-2],"categories":[],"categories_nodes":[],"categories_segments":[],"categories_sizes":[],"default_left":[0,0,0,0,0,0,0,0,0,0,0,0,0,0,0],"id":26,"left_children":[1,3,5,7,9,11,13,-1,-1,-1,-1,-1,-1,-1,-1],"loss_changes":[5.885038E1,1.9112988E1,2.1114674E1,2.926693E0,1.0847605E1,1.2585307E1,4.105179E0,0E0,0E0,0E0,0E0,0E0,0E0,0E0,0E0],"parents":[2147483647,0,0,1,1,2,2,3,3,4,4,5,5,6,6],"right_children":[2,4,6,8,10,12,14,-1,-1,-1,-1,-1,-1,-1,-1],"split_conditions":[-2.639466E-1,6.45609E-1,1.5323298E-1,-5.8221686E-1,1.9142369E0,-2.0014292E-1,4.159284E-2,-1.40805E-2,-7.239992E-3,9.716169E-3,-7.77178E-3,-3.8731007E-3,5.082252E-3,1.9222301E-3,1.0908775E-2],"split_indices":[5,7,6,5,7,7,5,0,0,0,0,0,0,0,0],"split_type":[0,0,0,0,0,0,0,0,0,0,0,0,0,0,0],"sum_hessian":[1.5581989E2,5.0551704E1,1.0526818E2,3.810881E1,1.2442894E1,6.0800526E1,4.446765E1,2.4745928E1,1.3362883E1,7.0689836E0,5.37391E0,3.004831E1,3.0752216E1,6.397949E0,3.8069702E1],"tree_param":{"num_deleted":"0","num_feature":"8","num_nodes":"15","size_leaf_vector":"1"}},{"base_weights":[9.606345E-3,-3.8130295E-1,1.3584435E0,-1.2981334E0,-3.0366555E-2,1.4009964E0,1.5380018E-3,-2.6849636E-3,-1.3726682E-2,-1.0853986E-2,2.0304848E-3,4.572963E-3,1.4394696E-2],"categories":[],"categories_nodes":[],"categories_segments":[],"categories_sizes":[],"default_left":[0,0,0,0,0,0,0,0,0,0,0,0,0],"id":27,"left_children":[1,3,5,7,9,11,-1,-1,-1,-1,-1,-1,-1],"loss_changes":[8.716847E1,4.1206406E1,1.6885986E0,2.3529053E0,2.3302588E1,6.3986206E-1,0E0,0E0,0E0,0E0,0E0,0E0,0E0],"parents":[2147483647,0,0,1,1,2,2,3,3,4,4,5,5],"right_children":[2,4,6,8,10,12,-1,-1,-1,-1,-1,-1,-1],"split_conditions":[1.0810462E0,-5.185628E-1,2.7954075E0,-1.7534513E0,-8.215786E-1,-1.0315036E0,1.5380018E-3,-2.6849636E-3,-1.3726682E-2,-1.0853986E-2,2.0304848E-3,4.572963E-3,1.4394696E-2],"split_indices":[1,5,6,5,1,6,0,0,0,0,0,0,0],"split_type":[0,0,0,0,0,0,0,0,0,0,0,0,0],"sum_hessian":[1.6333707E2,1.2719247E2,3.6144604E1,3.4461597E1,9.273087E1,3.4753956E1,1.3906486E0,2.6369295E0,3.1824667E1,1.6137873E1,7.6593E1,1.8661314E0,3.2887825E1],"tree_param":{"num_deleted":"0","num_feature":"8","num_nodes":"13","size_leaf_vector":"1"}},{"base_weights":[3.4044802E-2,-5.163289E-1,9.941728E-1,-1.4339786E0,-2.0322472E-1,4.2945898E-1,1.3901568E-2,-1.5517005E-2,-3.1733038E-3,-7.3141824E-3,3.4019984E-3,-6.731688E-3,6.5061664E-3],"categories":[],"categories_nodes":[],"categories_segments":[],"categories_sizes":[],"default_left":[0,0,0,0,0,0,0,0,0,0,0,0,0],"id":28,"left_children":[1,3,5,7,9,11,-1,-1,-1,-1,-1,-1,-1],"loss_changes":[8.28558E1,2.8356108E1,1.21757965E1,2.8202515E0,2.1921543E1,6.532032E0,0E0,0E0,0E0,0E0,0E0,0E0,0E0],"parents":[2147483647,0,0,1,1,2,2,3,3,4,4,5,5],"right_children":[2,4,6,8,10,12,-1,-1,-1,-1,-1,-1,-1],"split_conditions":[4.1512755E-1,-5.5675524E-1,1.1127566E0,9.839098E-1,-2.0014292E-1,-6.586017E-1,1.3901568E-2,-1.5517005E-2,-3.1733038E-3,-7.3141824E-3,3.4019984E-3,-6.731688E-3,6.5061664E-3],"split_indices":[1,5,1,7,7,5,0,0,0,0,0,0,0],"split_type":[0,0,0,0,0,0,0,0,0,0,0,0,0],"sum_hessian":[1.5482501E2,9.870604E1,5.6118977E1,2.4200123E1,7.450591E1,2.399054E1,3.2128437E1,2.153971E1,2.6604145E0,3.760701E1,3.6898907E1,3.6665158E0,2.0324024E1],"tree_param":{"num_deleted":"0","num_feature":"8","num_nodes":"13","size_leaf_vector":"1"}},{"base_weights":[-2.6731066E-2,-3.781761E-1,1.39677245E-2,-1.3731753E0,-1.2026114E-1,-1.3746605E-3,-1.4914096E-2,-4.57611E-3,4.4691563E-3],"categories":[],"categories_nodes":[],"categories_segments":[],"categories_sizes":[],"default_left":[0,0,0,0,0,0,0,0,0],"id":29,"left_children":[1,3,-1,5,7,-1,-1,-1,-1],"loss_changes":[7.946643E1,3.2511364E1,0E0,3.610546E0,1.9762249E1,0E0,0E0,0E0,0E0],"parents":[2147483647,0,0,1,1,3,3,4,4],"right_children":[2,4,-1,6,8,-1,-1,-1,-1],"split_conditions":[1.0810462E0,-6.586017E-1,1.39677245E-2,-1.7534513E0,1.5323298E-1,-1.3746605E-3,-1.4914096E-2,-4.57611E-3,4.4691563E-3],"split_indices":[1,5,0,5,6,0,0,0,0],"split_type":[0,0,0,0,0,0,0,0,0],"sum_hessian":[1.56787E2,1.2633165E2,3.0455353E1,2.51155E1,1.01216156E2,2.3820906E0,2.2733408E1,6.358798E1,3.7628178E1],"tree_param":{"num_deleted":"0","num_feature":"8","num_nodes":"9","size_leaf_vector":"1"}},{"base_weights":[6.5336213E-3,-8.126541E-1,3.9486513E-1,-1.1212416E0,8.084654E-2,-1.7418158E-1,6.504635E-1,6.406563E-4,-1.2161984E-2,8.794951E-3,-1.0594115E-2,-7.958676E-3,8.411001E-3,1.5481068E-3,8.94054E-3],"categories":[],"categories_nodes":[],"categories_segments":[],"categories_sizes":[],"default_left":[0,0,0,0,0,0,0,0,0,0,0,0,0,0,0],"id":30,"left_children":[1,3,5,7,9,11,13,-1,-1,-1,-1,-1,-1,-1,-1],"loss_changes":[5.1928555E1,1.4565815E1,1.621869E1,4.477524E0,1.4054181E1,2.2830038E1,9.112461E0,0E0,0E0,0E0,0E0,0E0,0E0,0E0,0E0],"parents":[2147483647,0,0,1,1,2,2,3,3,4,4,5,5,6,6],"right_children":[2,4,6,8,10,12,14,-1,-1,-1,-1,-1,-1,-1,-1],"split_conditions":[-2.639466E-1,5.6103384E-1,-5.384437E-1,-2.471395E0,1.7450866E0,7.290566E-1,-4.618604E-1,6.406563E-4,-1.2161984E-2,8.794951E-3,-1.0594115E-2,-7.958676E-3,8.411001E-3,1.5481068E-3,8.94054E-3],"split_indices":[5,7,7,2,7,5,6,0,0,0,0,0,0,0,0],"split_type":[0,0,0,0,0,0,0,0,0,0,0,0,0,0,0],"sum_hessian":[1.6122888E2,5.1498917E1,1.09729965E2,3.80892E1,1.34097185E1,3.4109486E1,7.5620476E1,2.8491938E0,3.5240005E1,8.020656E0,5.389063E0,2.1289455E1,1.282003E1,2.545688E1,5.0163597E1],"tree_param":{"num_deleted":"0","num_feature":"8","num_nodes":"15","size_leaf_vector":"1"}},{"base_weights":[-2.9525716E-2,-7.1239305E-1,7.143869E-1,-1.012794E0,1.6957678E-1,3.3180413E-1,1.2042E0,-1.3254545E-2,-4.423981E-3,-5.4015648E-3,8.327547E-3,-2.3567644E-3,6.1635533E-3,1.2694143E-2,-3.522793E-4],"categories":[],"categories_nodes":[],"categories_segments":[],"categories_sizes":[],"default_left":[0,0,0,0,0,0,0,0,0,0,0,0,0,0,0],"id":31,"left_children":[1,3,5,7,9,11,13,-1,-1,-1,-1,-1,-1,-1,-1],"loss_changes":[8.2111916E1,2.2494938E1,1.4101326E1,1.0647781E1,1.0928667E1,7.3837843E0,2.756897E0,0E0,0E0,0E0,0E0,0E0,0E0,0E0,0E0],"parents":[2147483647,0,0,1,1,2,2,3,3,4,4,5,5,6,6],"right_children":[2,4,6,8,10,12,14,-1,-1,-1,-1,-1,-1,-1,-1],"split_conditions":[1.2973382E-1,4.9259484E-1,1.0810462E0,-2.0014292E-1,5.1902163E-1,-5.2246076E-1,2.5062633E0,-1.3254545E-2,-4.423981E-3,-5.4015648E-3,8.327547E-3,-2.3567644E-3,6.1635533E-3,1.2694143E-2,-3.522793E-4],"split_indices":[1,6,1,7,3,6,7,0,0,0,0,0,0,0,0],"split_type":[0,0,0,0,0,0,0,0,0,0,0,0,0,0,0],"sum_hessian":[1.5963782E2,8.325608E1,7.6381744E1,6.1992844E1,2.1263237E1,4.382689E1,3.255485E1,3.9188217E1,2.2804626E1,1.0360707E1,1.0902531E1,1.4694134E1,2.9132755E1,3.0904572E1,1.6502818E0],"tree_param":{"num_deleted":"0","num_feature":"8","num_nodes":"15","size_leaf_vector":"1"}},{"base_weights":[-1.6327372E-2,-8.0278015E-1,4.1722423E-1,-1.0864596E0,5.285137E-1,5.7616822E-2,7.190213E-1,-1.2575626E-2,-1.0829235E-3,8.860734E-3,-6.900058E-3,-3.4286913E-3,5.469765E-3,5.229254E-3,1.0931479E-2],"categories":[],"categories_nodes":[],"categories_segments":[],"categories_sizes":[],"default_left":[0,0,0,0,0,0,0,0,0,0,0,0,0,0,0],"id":32,"left_children":[1,3,5,7,9,11,13,-1,-1,-1,-1,-1,-1,-1,-1],"loss_changes":[5.3511307E1,2.1634193E1,1.0940874E1,7.612301E0,5.172265E0,9.449857E0,3.4584122E0,0E0,0E0,0E0,0E0,0E0,0E0,0E0,0E0],"parents":[2147483647,0,0,1,1,2,2,3,3,4,4,5,5,6,6],"right_children":[2,4,6,8,10,12,14,-1,-1,-1,-1,-1,-1,-1,-1],"split_conditions":[-2.1302335E-1,1.2625237E0,-2.0014292E-1,6.45609E-1,1.8296617E0,3.468118E-1,4.5828542E-1,-1.2575626E-2,-1.0829235E-3,8.860734E-3,-6.900058E-3,-3.4286913E-3,5.469765E-3,5.229254E-3,1.0931479E-2],"split_indices":[5,0,7,7,7,4,4,0,0,0,0,0,0,0,0],"split_type":[0,0,0,0,0,0,0,0,0,0,0,0,0,0,0],"sum_hessian":[1.5495714E2,5.4764297E1,1.0019283E2,4.5296234E1,9.468065E0,4.626113E1,5.3931705E1,3.8309433E1,6.9867973E0,7.53101E0,1.9370555E0,2.5605366E1,2.0655766E1,3.6958096E1,1.697361E1],"tree_param":{"num_deleted":"0","num_feature":"8","num_nodes":"15","size_leaf_vector":"1"}},{"base_weights":[3.808166E-2,-8.409953E-1,6.271877E-1,-1.0916022E0,1.61985E-1,2.089059E-1,1.2383684E0,-1.3280721E-2,-4.926903E-3,-5.3800056E-3,5.3822044E-3,-2.3651621E-3,5.699986E-3,1.29488595E-2,-3.6503063E-4],"categories":[],"categories_nodes":[],"categories_segments":[],"categories_sizes":[],"default_left":[0,0,0,0,0,0,0,0,0,0,0,0,0,0,0],"id":33,"left_children":[1,3,5,7,9,11,13,-1,-1,-1,-1,-1,-1,-1,-1],"loss_changes":[8.456074E1,1.6649704E1,2.4725708E1,6.790077E0,3.9693089E0,9.660406E0,2.8937874E0,0E0,0E0,0E0,0E0,0E0,0E0,0E0,0E0],"parents":[2147483647,0,0,1,1,2,2,3,3,4,4,5,5,6,6],"right_children":[2,4,6,8,10,12,14,-1,-1,-1,-1,-1,-1,-1,-1],"split_conditions":[-1.8737033E-1,5.6103384E-1,1.0810462E0,6.452562E-1,-8.695591E-1,-2.0014292E-1,2.5062633E0,-1.3280721E-2,-4.926903E-3,-5.3800056E-3,5.3822044E-3,-2.3651621E-3,5.699986E-3,1.29488595E-2,-3.6503063E-4],"split_indices":[1,7,1,3,3,7,7,0,0,0,0,0,0,0,0],"split_type":[0,0,0,0,0,0,0,0,0,0,0,0,0,0,0],"sum_hessian":[1.6126726E2,6.453666E1,9.673059E1,5.1564327E1,1.2972335E1,5.8224514E1,3.850608E1,3.609526E1,1.5469066E1,4.3846827E0,8.587652E0,2.6222733E1,3.200178E1,3.685646E1,1.6496187E0],"tree_param":{"num_deleted":"0","num_feature":"8","num_nodes":"15","size_leaf_vector":"1"}},{"base_weights":[-4.2791236E-2,-5.820555E-1,9.6156937E-1,-1.0364801E0,-5.101048E-2,5.612465E-1,1.2599518E0,-1.4529719E-2,-7.097075E-3,-9.714904E-3,1.3523208E-3,-1.800535E-4,7.978371E-3,7.973885E-3,1.43835815E-2],"categories":[],"categories_nodes":[],"categories_segments":[],"categories_sizes":[],"default_left":[0,0,0,0,0,0,0,0,0,0,0,0,0,0,0],"id":34,"left_children":[1,3,5,7,9,11,13,-1,-1,-1,-1,-1,-1,-1,-1],"loss_changes":[8.3733406E1,2.4209599E1,5.746128E0,6.335411E0,8.259606E0,3.4233432E0,1.3412132E0,0E0,0E0,0E0,0E0,0E0,0E0,0E0,0E0],"parents":[2147483647,0,0,1,1,2,2,3,3,4,4,5,5,6,6],"right_children":[2,4,6,8,10,12,14,-1,-1,-1,-1,-1,-1,-1,-1],"split_conditions":[4.1512755E-1,-2.8471813E-1,1.0810462E0,-5.9960574E-1,-8.315224E-1,-6.679015E-1,-4.103501E-1,-1.4529719E-2,-7.097075E-3,-9.714904E-3,1.3523208E-3,-1.800535E-4,7.978371E-3,7.973885E-3,1.43835815E-2],"split_indices":[1,7,1,1,6,6,6,0,0,0,0,0,0,0,0],"split_type":[0,0,0,0,0,0,0,0,0,0,0,0,0,0,0],"sum_hessian":[1.5256592E2,9.9540695E1,5.3025215E1,5.3127117E1,4.6413578E1,2.3874765E1,2.9150452E1,2.1841867E1,3.128525E1,7.101089E0,3.931249E1,7.1914997E0,1.6683264E1,9.636057E0,1.9514395E1],"tree_param":{"num_deleted":"0","num_feature":"8","num_nodes":"15","size_leaf_vector":"1"}},{"base_weights":[-4.3239605E-2,-8.381897E-1,4.9491853E-1,-1.4211797E0,-4.271729E-1,1.111003E-1,1.1883382E0,-1.531748E-2,-4.3179602E-3,-1.084871E-2,-2.7413055E-4,-7.7805235E-3,4.4329558E-3,1.25113325E-2,-4.2368114E-4],"categories":[],"categories_nodes":[],"categories_segments":[],"categories_sizes":[],"default_left":[0,0,0,0,0,0,0,0,0,0,0,0,0,0,0],"id":35,"left_children":[1,3,5,7,9,11,13,-1,-1,-1,-1,-1,-1,-1,-1],"loss_changes":[6.9856094E1,1.5183075E1,2.5796389E1,2.272377E0,1.0507803E1,1.9193626E1,2.7275963E0,0E0,0E0,0E0,0E0,0E0,0E0,0E0,0E0],"parents":[2147483647,0,0,1,1,2,2,3,3,4,4,5,5,6,6],"right_children":[2,4,6,8,10,12,14,-1,-1,-1,-1,-1,-1,-1,-1],"split_conditions":[-1.8737033E-1,-2.894082E-1,1.0810462E0,3.0965394E-1,-8.8499945E-1,-3.912547E-1,2.5062633E0,-1.531748E-2,-4.3179602E-3,-1.084871E-2,-2.7413055E-4,-7.7805235E-3,4.4329558E-3,1.25113325E-2,-4.2368114E-4],"split_indices":[1,5,1,4,1,5,7,0,0,0,0,0,0,0,0],"split_type":[0,0,0,0,0,0,0,0,0,0,0,0,0,0,0],"sum_hessian":[1.6131842E2,6.489705E1,9.642138E1,2.5818348E1,3.90787E1,6.2813423E1,3.3607956E1,2.272998E1,3.0883694E0,1.4125369E1,2.4953331E1,1.6719612E1,4.609381E1,3.1960608E1,1.6473463E0],"tree_param":{"num_deleted":"0","num_feature":"8","num_nodes":"15","size_leaf_vector":"1"}},{"base_weights":[1.8953243E-2,-5.425251E-1,8.9525676E-1,-9.539117E-1,4.406065E-2,6.3893996E-2,1.1199635E0,-1.0837275E-2,1.4396401E-2,-1.1632269E-2,2.5174557E-3,-1.0248599E-2,5.0950143E-3,8.208137E-3,1.3442254E-2],"categories":[],"categories_nodes":[],"categories_segments":[],"categories_sizes":[],"default_left":[0,0,0,0,0,0,0,0,0,0,0,0,0,0,0],"id":36,"left_children":[1,3,5,7,9,11,13,-1,-1,-1,-1,-1,-1,-1,-1],"loss_changes":[7.722859E1,2.3132313E1,1.1377762E1,1.9049442E1,1.0422472E1,7.3633957E0,2.1293678E0,0E0,0E0,0E0,0E0,0E0,0E0,0E0,0E0],"parents":[2147483647,0,0,1,1,2,2,3,3,4,4,5,5,6,6],"right_children":[2,4,6,8,10,12,14,-1,-1,-1,-1,-1,-1,-1,-1],"split_conditions":[2.8828588E-1,-2.0014292E-1,-2.512158E-1,1.7093289E0,-6.7133254E-1,-4.538685E-1,1.1761775E0,-1.0837275E-2,1.4396401E-2,-1.1632269E-2,2.5174557E-3,-1.0248599E-2,5.0950143E-3,8.208137E-3,1.3442254E-2],"split_indices":[1,7,5,5,5,7,1,0,0,0,0,0,0,0,0],"split_type":[0,0,0,0,0,0,0,0,0,0,0,0,0,0,0],"sum_hessian":[1.5497342E2,9.468581E1,6.0287617E1,5.5286118E1,3.939969E1,1.3101065E1,4.718655E1,5.2960976E1,2.3251417E0,5.1076465E0,3.429204E1,3.427276E0,9.673789E0,2.2214289E1,2.4972261E1],"tree_param":{"num_deleted":"0","num_feature":"8","num_nodes":"15","size_leaf_vector":"1"}},{"base_weights":[1.2106965E-2,-6.673997E-1,8.806229E-1,-1.135752E0,-2.3138309E-1,7.818612E-2,1.1143456E0,-1.363394E-2,-5.586673E-3,-1.3036809E-2,1.8750792E-4,-5.5110697E-3,6.5221116E-3,8.38643E-3,1.37415035E-2],"categories":[],"categories_nodes":[],"categories_segments":[],"categories_sizes":[],"default_left":[0,0,0,0,0,0,0,0,0,0,0,0,0,0,0],"id":37,"left_children":[1,3,5,7,9,11,13,-1,-1,-1,-1,-1,-1,-1,-1],"loss_changes":[9.33891E1,1.7869404E1,1.2939003E1,4.8284264E0,1.2694881E1,6.407211E0,2.6949615E0,0E0,0E0,0E0,0E0,0E0,0E0,0E0,0E0],"parents":[2147483647,0,0,1,1,2,2,3,3,4,4,5,5,6,6],"right_children":[2,4,6,8,10,12,14,-1,-1,-1,-1,-1,-1,-1,-1],"split_conditions":[2.2486505E-1,-4.538685E-1,-2.512158E-1,5.821389E-1,-6.7133254E-1,7.956525E-1,1.1761775E0,-1.363394E-2,-5.586673E-3,-1.3036809E-2,1.8750792E-4,-5.5110697E-3,6.5221116E-3,8.38643E-3,1.37415035E-2],"split_indices":[1,7,5,3,5,1,1,0,0,0,0,0,0,0,0],"split_type":[0,0,0,0,0,0,0,0,0,0,0,0,0,0,0],"sum_hessian":[1.5624718E2,8.7792175E1,6.8454994E1,4.155286E1,4.623932E1,1.5742166E1,5.271283E1,2.8821226E1,1.2731636E1,7.94935E0,3.8289967E1,7.5286117E0,8.213553E0,2.762519E1,2.508764E1],"tree_param":{"num_deleted":"0","num_feature":"8","num_nodes":"15","size_leaf_vector":"1"}},{"base_weights":[-3.598071E-2,-5.00138E-1,8.4355587E-1,-1.11921E0,-1.649458E-1,3.6579874E-1,1.1797526E0,-1.5006306E-2,-6.4041577E-3,-4.382884E-3,3.970441E-3,1.3010801E-2,2.0392097E-3,1.2266046E-2,8.532363E-4],"categories":[],"categories_nodes":[],"categories_segments":[],"categories_sizes":[],"default_left":[0,0,0,0,0,0,0,0,0,0,0,0,0,0,0],"id":38,"left_children":[1,3,5,7,9,11,13,-1,-1,-1,-1,-1,-1,-1,-1],"loss_changes":[6.376297E1,2.1020052E1,8.23682E0,5.562439E0,1.0537867E1,3.329019E0,1.4965782E0,0E0,0E0,0E0,0E0,0E0,0E0,0E0,0E0],"parents":[2147483647,0,0,1,1,2,2,3,3,4,4,5,5,6,6],"right_children":[2,4,6,8,10,12,14,-1,-1,-1,-1,-1,-1,-1,-1],"split_conditions":[4.1512755E-1,-6.630265E-1,1.0810462E0,2.665524E-1,2.1080329E-1,-1.3837049E0,2.7954075E0,-1.5006306E-2,-6.4041577E-3,-4.382884E-3,3.970441E-3,1.3010801E-2,2.0392097E-3,1.2266046E-2,8.532363E-4],"split_indices":[1,1,1,3,6,2,6,0,0,0,0,0,0,0,0],"split_type":[0,0,0,0,0,0,0,0,0,0,0,0,0,0,0],"sum_hessian":[1.5415521E2,1.0118715E2,5.2968067E1,3.4721123E1,6.646603E1,2.2740461E1,3.0227606E1,1.8137835E1,1.6583288E1,4.4864693E1,2.1601336E1,2.3168678E0,2.0423594E1,2.8870884E1,1.356722E0],"tree_param":{"num_deleted":"0","num_feature":"8","num_nodes":"15","size_leaf_vector":"1"}},{"base_weights":[-3.731588E-2,-7.5205135E-1,7.77773E-1,-1.2395566E0,-3.11941E-1,3.488835E-1,1.2968845E0,-1.5134603E-2,-5.7823337E-3,-1.2271634E-2,-1.0853715E-3,7.537627E-3,-3.226261E-4,1.3447351E-2,1.6076424E-3],"categories":[],"categories_nodes":[],"categories_segments":[],"categories_sizes":[],"default_left":[0,0,0,0,0,0,0,0,0,0,0,0,0,0,0],"id":39,"left_children":[1,3,5,7,9,11,13,-1,-1,-1,-1,-1,-1,-1,-1],"loss_changes":[8.661054E1,1.6602783E1,1.5016846E1,5.8691864E0,7.862602E0,6.1067204E0,1.4726982E0,0E0,0E0,0E0,0E0,0E0,0E0,0E0,0E0],"parents":[2147483647,0,0,1,1,2,2,3,3,4,4,5,5,6,6],"right_children":[2,4,6,8,10,12,14,-1,-1,-1,-1,-1,-1,-1,-1],"split_conditions":[1.2973382E-1,-4.538685E-1,1.0810462E0,5.821389E-1,-6.7133254E-1,2.4783039E-1,2.5062633E0,-1.5134603E-2,-5.7823337E-3,-1.2271634E-2,-1.0853715E-3,7.537627E-3,-3.226261E-4,1.3447351E-2,1.6076424E-3],"split_indices":[1,7,1,3,5,2,7,0,0,0,0,0,0,0,0],"split_type":[0,0,0,0,0,0,0,0,0,0,0,0,0,0,0],"sum_hessian":[1.4666498E2,7.818416E1,6.848081E1,3.6232906E1,4.1951252E1,3.8414696E1,3.0066116E1,2.4710073E1,1.1522834E1,6.7129536E0,3.5238297E1,1.8153355E1,2.0261343E1,2.8674782E1,1.3913336E0],"tree_param":{"num_deleted":"0","num_feature":"8","num_nodes":"15","size_leaf_vector":"1"}},{"base_weights":[-4.1474342E-2,-6.3337153E-1,7.081733E-1,-1.1790679E0,-7.900992E-2,3.0334777E-1,1.1671504E0,-1.310765E-2,-4.253372E-3,-9.696921E-3,1.3046397E-3,-1.2707682E-2,5.227493E-3,1.23592485E-2,-6.343648E-4],"categories":[],"categories_nodes":[],"categories_segments":[],"categories_sizes":[],"default_left":[0,0,0,0,0,0,0,0,0,0,0,0,0,0,0],"id":40,"left_children":[1,3,5,7,9,11,13,-1,-1,-1,-1,-1,-1,-1,-1],"loss_changes":[6.913573E1,2.6234398E1,1.2423981E1,3.7888374E0,8.381282E0,1.3750906E1,2.7763863E0,0E0,0E0,0E0,0E0,0E0,0E0,0E0,0E0],"parents":[2147483647,0,0,1,1,2,2,3,3,4,4,5,5,6,6],"right_children":[2,4,6,8,10,12,14,-1,-1,-1,-1,-1,-1,-1,-1],"split_conditions":[2.2486505E-1,-3.692933E-1,1.1761775E0,8.9772546E-1,-9.1670984E-1,-7.406219E-1,2.5062633E0,-1.310765E-2,-4.253372E-3,-9.696921E-3,1.3046397E-3,-1.2707682E-2,5.227493E-3,1.23592485E-2,-6.343648E-4],"split_indices":[1,7,1,3,1,6,7,0,0,0,0,0,0,0,0],"split_type":[0,0,0,0,0,0,0,0,0,0,0,0,0,0,0],"sum_hessian":[1.5380046E2,8.6029495E1,6.777096E1,4.2785698E1,4.3243797E1,3.6892277E1,3.0878685E1,3.57927E1,6.9929943E0,7.542773E0,3.5701023E1,3.9268398E0,3.2965435E1,2.9240187E1,1.6384977E0],"tree_param":{"num_deleted":"0","num_feature":"8","num_nodes":"15","size_leaf_vector":"1"}},{"base_weights":[-5.2224137E-2,-8.567211E-1,3.4177285E-1,-1.1105114E0,3.088796E-1,3.7863462E-3,8.125972E-1,-1.3866344E-2,-7.3218625E-3,-2.0177786E-3,1.40296025E-2,-1.4709295E-3,1.3794846E-2,6.1159185E-3,1.3416296E-2],"categories":[],"categories_nodes":[],"categories_segments":[],"categories_sizes":[],"default_left":[0,0,0,0,0,0,0,0,0,0,0,0,0,0,0],"id":41,"left_children":[1,3,5,7,9,11,13,-1,-1,-1,-1,-1,-1,-1,-1],"loss_changes":[4.965247E1,1.5571239E1,1.674487E1,3.4235725E0,5.8627315E0,1.3127962E1,3.8557396E0,0E0,0E0,0E0,0E0,0E0,0E0,0E0,0E0],"parents":[2147483647,0,0,1,1,2,2,3,3,4,4,5,5,6,6],"right_children":[2,4,6,8,10,12,14,-1,-1,-1,-1,-1,-1,-1,-1],"split_conditions":[-2.894082E-1,1.2625237E0,1.5020296E-1,3.0292349E-2,7.9167545E-1,1.7093289E0,1.2625237E0,-1.3866344E-2,-7.3218625E-3,-2.0177786E-3,1.40296025E-2,-1.4709295E-3,1.3794846E-2,6.1159185E-3,1.3416296E-2],"split_indices":[5,0,6,2,2,5,0,0,0,0,0,0,0,0,0],"split_type":[0,0,0,0,0,0,0,0,0,0,0,0,0,0,0],"sum_hessian":[1.5472377E2,5.0478333E1,1.0424544E2,4.1491505E1,8.986827E0,6.1270077E1,4.2975365E1,2.2444822E1,1.9046682E1,6.6830945E0,2.3037326E0,5.6019257E1,5.250818E0,3.2705135E1,1.0270227E1],"tree_param":{"num_deleted":"0","num_feature":"8","num_nodes":"15","size_leaf_vector":"1"}},{"base_weights":[1.6830932E-2,-5.110781E-1,8.141409E-1,-1.1068547E0,-1.5068509E-1,-1.8926563E-2,1.0822587E0,-1.3506787E-2,1.9651463E-3,-7.4224262E-3,1.5879557E-3,-4.860255E-3,9.016431E-3,7.852473E-3,1.3275102E-2],"categories":[],"categories_nodes":[],"categories_segments":[],"categories_sizes":[],"default_left":[0,0,0,0,0,0,0,0,0,0,0,0,0,0,0],"id":42,"left_children":[1,3,5,7,9,11,13,-1,-1,-1,-1,-1,-1,-1,-1],"loss_changes":[6.60634E1,2.0113028E1,1.3984016E1,1.1528664E1,1.1103949E1,7.405989E0,2.4038658E0,0E0,0E0,0E0,0E0,0E0,0E0,0E0,0E0],"parents":[2147483647,0,0,1,1,2,2,3,3,4,4,5,5,6,6],"right_children":[2,4,6,8,10,12,14,-1,-1,-1,-1,-1,-1,-1,-1],"split_conditions":[2.8828588E-1,-2.894082E-1,-2.2575417E-1,1.2625237E0,-6.313161E-1,1.2078879E0,1.1761775E0,-1.3506787E-2,1.9651463E-3,-7.4224262E-3,1.5879557E-3,-4.860255E-3,9.016431E-3,7.852473E-3,1.3275102E-2],"split_indices":[1,5,5,0,1,1,1,0,0,0,0,0,0,0,0],"split_type":[0,0,0,0,0,0,0,0,0,0,0,0,0,0,0],"sum_hessian":[1.5496626E2,9.345049E1,6.1515762E1,3.444206E1,5.900844E1,1.5204218E1,4.6311546E1,2.8983713E1,5.4583426E0,1.9787405E1,3.9221035E1,1.0399519E1,4.804699E0,2.2845892E1,2.3465654E1],"tree_param":{"num_deleted":"0","num_feature":"8","num_nodes":"15","size_leaf_vector":"1"}},{"base_weights":[1.1760353E-2,-5.5212027E-1,7.2055656E-1,-1.168771E0,-1.7090711E-1,-3.06843E-2,9.716223E-1,-1.3222352E-2,-3.5999417E-3,-6.5169684E-3,5.015012E-3,-6.478792E-3,5.3696996E-3,2.8800268E-3,1.1803739E-2],"categories":[],"categories_nodes":[],"categories_segments":[],"categories_sizes":[],"default_left":[0,0,0,0,0,0,0,0,0,0,0,0,0,0,0],"id":43,"left_children":[1,3,5,7,9,11,13,-1,-1,-1,-1,-1,-1,-1,-1],"loss_changes":[6.273164E1,2.035192E1,1.3144829E1,3.648201E0,1.8171595E1,6.7898445E0,7.1018867E0,0E0,0E0,0E0,0E0,0E0,0E0,0E0,0E0],"parents":[2147483647,0,0,1,1,2,2,3,3,4,4,5,5,6,6],"right_children":[2,4,6,8,10,12,14,-1,-1,-1,-1,-1,-1,-1,-1],"split_conditions":[2.2486505E-1,-2.894082E-1,-2.512158E-1,5.7413745E-1,5.6272443E-2,7.956525E-1,-5.2246076E-1,-1.3222352E-2,-3.5999417E-3,-6.5169684E-3,5.015012E-3,-6.478792E-3,5.3696996E-3,2.8800268E-3,1.1803739E-2],"split_indices":[1,5,5,2,6,1,6,0,0,0,0,0,0,0,0],"split_type":[0,0,0,0,0,0,0,0,0,0,0,0,0,0,0],"sum_hessian":[1.5496066E2,8.642587E1,6.853479E1,3.2227962E1,5.419791E1,1.7387016E1,5.1147778E1,2.6554441E1,5.673522E0,3.1619753E1,2.2578157E1,8.262308E0,9.124708E0,1.2521622E1,3.8626156E1],"tree_param":{"num_deleted":"0","num_feature":"8","num_nodes":"15","size_leaf_vector":"1"}},{"base_weights":[-2.4169436E-2,-5.53147E-1,4.7243088E-1,-1.1836042E0,-8.455788E-2,-7.111275E-1,6.627848E-1,-1.2916959E-2,-5.261117E-3,-6.1859027E-3,6.6444236E-3,-2.2681532E-3,-1.1411007E-2,2.7890983E-3,8.935509E-3],"categories":[],"categories_nodes":[],"categories_segments":[],"categories_sizes":[],"default_left":[0,0,0,0,0,0,0,0,0,0,0,0,0,0,0],"id":44,"left_children":[1,3,5,7,9,11,13,-1,-1,-1,-1,-1,-1,-1,-1],"loss_changes":[3.8684956E1,2.0959795E1,1.7589918E1,1.4750252E0,1.7198536E1,2.0338674E0,5.595043E0,0E0,0E0,0E0,0E0,0E0,0E0,0E0,0E0],"parents":[2147483647,0,0,1,1,2,2,3,3,4,4,5,5,6,6],"right_children":[2,4,6,8,10,12,14,-1,-1,-1,-1,-1,-1,-1,-1],"split_conditions":[-2.0014292E-1,-1.1117688E-1,-6.586017E-1,-4.538685E-1,1.2899284E-1,-4.5277035E-1,-4.800405E-1,-1.2916959E-2,-5.261117E-3,-6.1859027E-3,6.6444236E-3,-2.2681532E-3,-1.1411007E-2,2.7890983E-3,8.935509E-3],"split_indices":[7,5,5,7,6,6,6,0,0,0,0,0,0,0,0],"split_type":[0,0,0,0,0,0,0,0,0,0,0,0,0,0,0],"sum_hessian":[1.4526962E2,7.0286606E1,7.498302E1,2.9316805E1,4.0969803E1,1.0009763E1,6.497325E1,2.4349218E1,4.9675856E0,2.401872E1,1.6951084E1,5.4257865E0,4.5839763E0,2.5223341E1,3.974991E1],"tree_param":{"num_deleted":"0","num_feature":"8","num_nodes":"15","size_leaf_vector":"1"}},{"base_weights":[3.4890668E-3,-6.484835E-1,3.9513573E-1,-1.3093859E0,-1.01628534E-1,-4.954825E-1,5.649597E-1,-1.3606754E-2,-1.0749075E-3,-5.5605853E-3,4.7480115E-3,7.3240646E-3,-6.4003775E-3,7.00898E-4,8.198325E-3],"categories":[],"categories_nodes":[],"categories_segments":[],"categories_sizes":[],"default_left":[0,0,0,0,0,0,0,0,0,0,0,0,0,0,0],"id":45,"left_children":[1,3,5,7,9,11,13,-1,-1,-1,-1,-1,-1,-1,-1],"loss_changes":[3.9970978E1,2.1099268E1,1.5070135E1,1.4882965E0,8.968921E0,3.3429728E0,1.03601055E1,0E0,0E0,0E0,0E0,0E0,0E0,0E0,0E0],"parents":[2147483647,0,0,1,1,2,2,3,3,4,4,5,5,6,6],"right_children":[2,4,6,8,10,12,14,-1,-1,-1,-1,-1,-1,-1,-1],"split_conditions":[-4.538685E-1,-1.1117688E-1,-5.8221686E-1,1.4925003E0,9.566266E-2,-1.7534513E0,-4.800405E-1,-1.3606754E-2,-1.0749075E-3,-5.5605853E-3,4.7480115E-3,7.3240646E-3,-6.4003775E-3,7.00898E-4,8.198325E-3],"split_indices":[7,5,5,6,6,5,6,0,0,0,0,0,0,0,0],"split_type":[0,0,0,0,0,0,0,0,0,0,0,0,0,0,0],"sum_hessian":[1.5453491E2,5.7747353E1,9.678757E1,2.55158E1,3.2231552E1,1.5192898E1,8.1594666E1,2.4344803E1,1.1709974E0,1.80428E1,1.4188753E1,1.1718965E0,1.4021002E1,2.8171288E1,5.3423378E1],"tree_param":{"num_deleted":"0","num_feature":"8","num_nodes":"15","size_leaf_vector":"1"}},{"base_weights":[-1.1818532E-2,-7.23133E-1,2.2968793E-1,-1.0665408E0,3.135213E-1,-6.287724E-2,7.60008E-1,-1.3027836E-2,-1.455827E-3,5.4313606E-3,-5.7784407E-3,1.5036906E-3,-8.173349E-3,-5.911019E-3,8.3102295E-3],"categories":[],"categories_nodes":[],"categories_segments":[],"categories_sizes":[],"default_left":[0,0,0,0,0,0,0,0,0,0,0,0,0,0,0],"id":46,"left_children":[1,3,5,7,9,11,13,-1,-1,-1,-1,-1,-1,-1,-1],"loss_changes":[2.7229721E1,1.463554E1,1.8413177E1,6.4251556E0,2.5179672E0,1.2544603E1,4.53652E0,0E0,0E0,0E0,0E0,0E0,0E0,0E0,0E0],"parents":[2147483647,0,0,1,1,2,2,3,3,4,4,5,5,6,6],"right_children":[2,4,6,8,10,12,14,-1,-1,-1,-1,-1,-1,-1,-1],"split_conditions":[-7.075941E-1,7.714908E-1,3.2823288E-1,4.9259484E-1,1.5920157E0,-4.3350342E-1,-9.527231E-1,-1.3027836E-2,-1.455827E-3,5.4313606E-3,-5.7784407E-3,1.5036906E-3,-8.173349E-3,-5.911019E-3,8.3102295E-3],"split_indices":[7,3,4,6,3,4,6,0,0,0,0,0,0,0,0],"split_type":[0,0,0,0,0,0,0,0,0,0,0,0,0,0,0],"sum_hessian":[1.5654172E2,3.9172325E1,1.173694E2,2.9403221E1,9.769103E0,7.620843E1,4.116097E1,2.3070593E1,6.332629E0,8.078707E0,1.6903965E0,6.0039146E1,1.616928E1,1.6896956E0,3.9471275E1],"tree_param":{"num_deleted":"0","num_feature":"8","num_nodes":"15","size_leaf_vector":"1"}},{"base_weights":[-1.5010961E-2,-6.8046725E-1,3.5976237E-1,-1.2511207E0,-1.11314744E-1,-7.777534E-1,5.39783E-1,-1.3453123E-2,1.6936674E-3,-1.0702143E-2,3.1617875E-3,7.758154E-3,-9.738765E-3,7.552074E-4,8.1735235E-3],"categories":[],"categories_nodes":[],"categories_segments":[],"categories_sizes":[],"default_left":[0,0,0,0,0,0,0,0,0,0,0,0,0,0,0],"id":47,"left_children":[1,3,5,7,9,11,13,-1,-1,-1,-1,-1,-1,-1,-1],"loss_changes":[3.958351E1,1.843054E1,2.121718E1,4.0346985E0,1.2522456E1,5.1084976E0,1.1313814E1,0E0,0E0,0E0,0E0,0E0,0E0,0E0,0E0],"parents":[2147483647,0,0,1,1,2,2,3,3,4,4,5,5,6,6],"right_children":[2,4,6,8,10,12,14,-1,-1,-1,-1,-1,-1,-1,-1],"split_conditions":[-4.538685E-1,-1.709788E-1,-6.586017E-1,1.2764814E0,-2.512158E-1,-1.6006817E0,-4.951906E-1,-1.3453123E-2,1.6936674E-3,-1.0702143E-2,3.1617875E-3,7.758154E-3,-9.738765E-3,7.552074E-4,8.1735235E-3],"split_indices":[7,6,5,5,5,5,6,0,0,0,0,0,0,0,0],"split_type":[0,0,0,0,0,0,0,0,0,0,0,0,0,0,0],"sum_hessian":[1.5673636E2,5.6175014E1,1.0056135E2,2.74522E1,2.8722815E1,1.3286455E1,8.7274895E1,2.5794693E1,1.6575083E0,8.39307E0,2.0329744E1,1.1579683E0,1.2128487E1,3.3131405E1,5.414349E1],"tree_param":{"num_deleted":"0","num_feature":"8","num_nodes":"15","size_leaf_vector":"1"}},{"base_weights":[2.2989698E-4,-5.977148E-1,7.611089E-1,-1.1014634E0,-8.377707E-2,4.105222E-1,1.112767E0,-1.2571184E-2,3.1830943E-5,-9.336939E-3,1.6229787E-3,7.0198183E-4,9.784556E-3,1.1761379E-2,-7.449201E-4],"categories":[],"categories_nodes":[],"categories_segments":[],"categories_sizes":[],"default_left":[0,0,0,0,0,0,0,0,0,0,0,0,0,0,0],"id":48,"left_children":[1,3,5,7,9,11,13,-1,-1,-1,-1,-1,-1,-1,-1],"loss_changes":[7.033685E1,2.2319916E1,7.9304314E0,7.506817E0,9.339871E0,6.8221264E0,2.5989532E0,0E0,0E0,0E0,0E0,0E0,0E0,0E0,0E0],"parents":[2147483647,0,0,1,1,2,2,3,3,4,4,5,5,6,6],"right_children":[2,4,6,8,10,12,14,-1,-1,-1,-1,-1,-1,-1,-1],"split_conditions":[2.2486505E-1,-3.692933E-1,1.0810462E0,6.8290645E-1,-8.215786E-1,8.3460814E-1,2.5062633E0,-1.2571184E-2,3.1830943E-5,-9.336939E-3,1.6229787E-3,7.0198183E-4,9.784556E-3,1.1761379E-2,-7.449201E-4],"split_indices":[1,7,1,2,1,3,7,0,0,0,0,0,0,0,0],"split_type":[0,0,0,0,0,0,0,0,0,0,0,0,0,0,0],"sum_hessian":[1.5259895E2,8.5568504E1,6.703046E1,4.263529E1,4.2933212E1,3.465171E1,3.2378746E1,3.724859E1,5.386702E0,9.012083E0,3.392113E1,2.2370306E1,1.2281403E1,3.074697E1,1.6317784E0],"tree_param":{"num_deleted":"0","num_feature":"8","num_nodes":"15","size_leaf_vector":"1"}},{"base_weights":[1.2775042E-2,-7.344735E-1,5.557164E-1,-1.075803E0,2.240307E-1,-2.690669E-1,7.940196E-1,-1.134253E-2,7.19718E-3,-9.678E-3,6.68351E-3,-7.1121906E-3,7.874176E-3,3.3342012E-3,1.0149794E-2],"categories":[],"categories_nodes":[],"categories_segments":[],"categories_sizes":[],"default_left":[0,0,0,0,0,0,0,0,0,0,0,0,0,0,0],"id":49,"left_children":[1,3,5,7,9,11,13,-1,-1,-1,-1,-1,-1,-1,-1],"loss_changes":[6.462804E1,2.217501E1,1.8344612E1,6.022808E0,1.040792E1,1.0568263E1,6.9711685E0,0E0,0E0,0E0,0E0,0E0,0E0,0E0,0E0],"parents":[2147483647,0,0,1,1,2,2,3,3,4,4,5,5,6,6],"right_children":[2,4,6,8,10,12,14,-1,-1,-1,-1,-1,-1,-1,-1],"split_conditions":[-1.8737033E-1,4.9259484E-1,-3.912547E-1,1.6584057E0,-5.440244E-1,7.322317E-1,2.8828588E-1,-1.134253E-2,7.19718E-3,-9.678E-3,6.68351E-3,-7.1121906E-3,7.874176E-3,3.3342012E-3,1.0149794E-2],"split_indices":[1,6,5,5,5,1,1,0,0,0,0,0,0,0,0],"split_type":[0,0,0,0,0,0,0,0,0,0,0,0,0,0,0],"sum_hessian":[1.5728926E2,6.604246E1,9.1246796E1,4.8609814E1,1.7432644E1,2.0425093E1,7.082171E1,4.743397E1,1.1758428E0,4.414139E0,1.3018505E1,1.4629335E1,5.7957563E0,2.3773619E1,4.7048088E1],"tree_param":{"num_deleted":"0","num_feature":"8","num_nodes":"15","size_leaf_vector":"1"}},{"base_weights":[-6.975072E-2,-6.6702545E-1,6.098003E-1,-1.4014275E0,-4.0687746E-1,3.060307E-1,1.2804091E0,-3.824449E-3,-1.4796015E-2,-6.8779187E-3,4.2083226E-3,-3.168531E-3,5.8582607E-3,1.3586044E-2,3.0714518E-4],"categories":[],"categories_nodes":[],"categories_segments":[],"categories_sizes":[],"default_left":[0,0,0,0,0,0,0,0,0,0,0,0,0,0,0],"id":50,"left_children":[1,3,5,7,9,11,13,-1,-1,-1,-1,-1,-1,-1,-1],"loss_changes":[6.2163094E1,1.4992455E1,1.421369E1,1.0988274E0,1.4602938E1,9.014534E0,2.1118393E0,0E0,0E0,0E0,0E0,0E0,0E0,0E0,0E0],"parents":[2147483647,0,0,1,1,2,2,3,3,4,4,5,5,6,6],"right_children":[2,4,6,8,10,12,14,-1,-1,-1,-1,-1,-1,-1,-1],"split_conditions":[1.2973382E-1,-5.8221686E-1,1.4298608E0,-1.7534513E0,4.653247E-1,-2.512158E-1,1.3355206E0,-3.824449E-3,-1.4796015E-2,-6.8779187E-3,4.2083226E-3,-3.168531E-3,5.8582607E-3,1.3586044E-2,3.0714518E-4],"split_indices":[1,5,1,5,6,5,2,0,0,0,0,0,0,0,0],"split_type":[0,0,0,0,0,0,0,0,0,0,0,0,0,0,0],"sum_hessian":[1.5115471E2,8.045723E1,7.069748E1,1.989795E1,6.055928E1,4.9659348E1,2.1038136E1,1.8375887E0,1.806036E1,4.5340366E1,1.5218916E1,1.5351411E1,3.4307934E1,1.9717249E1,1.3208878E0],"tree_param":{"num_deleted":"0","num_feature":"8","num_nodes":"15","size_leaf_vector":"1"}},{"base_weights":[4.9030185E-3,-7.2809494E-1,5.215586E-1,-9.9043584E-1,6.8293504E-2,-4.264108E-1,7.144706E-1,-1.2630169E-2,-4.784815E-3,-9.333918E-3,4.6504424E-3,-9.717393E-3,7.6957117E-3,4.5619495E-3,1.1931122E-2],"categories":[],"categories_nodes":[],"categories_segments":[],"categories_sizes":[],"default_left":[0,0,0,0,0,0,0,0,0,0,0,0,0,0,0],"id":51,"left_children":[1,3,5,7,9,11,13,-1,-1,-1,-1,-1,-1,-1,-1],"loss_changes":[5.9594517E1,1.3660904E1,1.7183517E1,6.234333E0,7.21297E0,1.1334933E1,8.982548E0,0E0,0E0,0E0,0E0,0E0,0E0,0E0,0E0],"parents":[2147483647,0,0,1,1,2,2,3,3,4,4,5,5,6,6],"right_children":[2,4,6,8,10,12,14,-1,-1,-1,-1,-1,-1,-1,-1],"split_conditions":[-1.8737033E-1,4.9259484E-1,-4.8037037E-1,-2.0014292E-1,-5.8221686E-1,7.956525E-1,1.2078879E0,-1.2630169E-2,-4.784815E-3,-9.333918E-3,4.6504424E-3,-9.717393E-3,7.6957117E-3,4.5619495E-3,1.1931122E-2],"split_indices":[1,6,5,7,5,1,1,0,0,0,0,0,0,0,0],"split_type":[0,0,0,0,0,0,0,0,0,0,0,0,0,0,0],"sum_hessian":[1.5536018E2,6.4062775E1,9.129742E1,4.8005474E1,1.60573E1,1.5232844E1,7.6064575E1,3.036899E1,1.7636484E1,4.171878E0,1.1885422E1,1.0591133E1,4.6417117E0,5.0673946E1,2.5390625E1],"tree_param":{"num_deleted":"0","num_feature":"8","num_nodes":"15","size_leaf_vector":"1"}},{"base_weights":[4.408442E-2,-5.283181E-1,4.0575233E-1,-8.619492E-1,3.8187554E-1,1.5607661E-1,1.0066632E0,-1.1395203E-2,3.3475037E-4,-1.7776235E-3,5.82606E-3,-2.4560376E-3,5.3066215E-3,5.7682246E-3,1.24579845E-2],"categories":[],"categories_nodes":[],"categories_segments":[],"categories_sizes":[],"default_left":[0,0,0,0,0,0,0,0,0,0,0,0,0,0,0],"id":52,"left_children":[1,3,5,7,9,11,13,-1,-1,-1,-1,-1,-1,-1,-1],"loss_changes":[3.232426E1,1.8698261E1,1.4188273E1,1.1116295E1,2.0041137E0,1.0472042E1,2.147459E0,0E0,0E0,0E0,0E0,0E0,0E0,0E0,0E0],"parents":[2147483647,0,0,1,1,2,2,3,3,4,4,5,5,6,6],"right_children":[2,4,6,8,10,12,14,-1,-1,-1,-1,-1,-1,-1,-1],"split_conditions":[-4.538685E-1,7.714908E-1,5.8833796E-1,4.9259484E-1,-5.194307E-1,6.585583E-1,2.4783039E-1,-1.1395203E-2,3.3475037E-4,-1.7776235E-3,5.82606E-3,-2.4560376E-3,5.3066215E-3,5.7682246E-3,1.24579845E-2],"split_indices":[7,3,4,6,6,0,2,0,0,0,0,0,0,0,0],"split_type":[0,0,0,0,0,0,0,0,0,0,0,0,0,0,0],"sum_hessian":[1.5410555E2,5.949057E1,9.461498E1,4.35722E1,1.5918367E1,6.773227E1,2.6882711E1,3.305342E1,1.0518781E1,4.2325134E0,1.1685854E1,3.2850227E1,3.4882042E1,1.0829328E1,1.6053385E1],"tree_param":{"num_deleted":"0","num_feature":"8","num_nodes":"15","size_leaf_vector":"1"}},{"base_weights":[7.831673E-3,-9.114983E-1,2.5854224E-1,-1.1267029E0,-7.562163E-2,2.210981E-2,9.373623E-1,-1.3589165E-2,-7.0879715E-3,6.513472E-3,-8.841321E-3,-1.4163475E-3,7.3228506E-3,6.589584E-3,1.22851385E-2],"categories":[],"categories_nodes":[],"categories_segments":[],"categories_sizes":[],"default_left":[0,0,0,0,0,0,0,0,0,0,0,0,0,0,0],"id":53,"left_children":[1,3,5,7,9,11,13,-1,-1,-1,-1,-1,-1,-1,-1],"loss_changes":[3.561841E1,5.8716984E0,1.9463161E1,1.5854568E0,5.1910653E0,1.0693136E1,1.7304935E0,0E0,0E0,0E0,0E0,0E0,0E0,0E0,0E0],"parents":[2147483647,0,0,1,1,2,2,3,3,4,4,5,5,6,6],"right_children":[2,4,6,8,10,12,14,-1,-1,-1,-1,-1,-1,-1,-1],"split_conditions":[-5.8221686E-1,8.147594E-1,9.60541E-1,-2.3157914E-1,1.9142369E0,1.1364425E0,1.1081274E-1,-1.3589165E-2,-7.0879715E-3,6.513472E-3,-8.841321E-3,-1.4163475E-3,7.3228506E-3,6.589584E-3,1.22851385E-2],"split_indices":[5,7,0,6,7,5,6,0,0,0,0,0,0,0,0],"split_type":[0,0,0,0,0,0,0,0,0,0,0,0,0,0,0],"sum_hessian":[1.5251381E2,3.2115158E1,1.2039866E2,2.526302E1,6.8521385E0,9.006252E1,3.033613E1,1.4791976E1,1.0471045E1,3.7103653E0,3.1417732E0,7.383826E1,1.6224266E1,1.7175713E1,1.3160418E1],"tree_param":{"num_deleted":"0","num_feature":"8","num_nodes":"15","size_leaf_vector":"1"}},{"base_weights":[-1.5418808E-2,-6.219915E-1,6.9252217E-1,-8.894569E-1,1.865702E-1,2.8099746E-1,1.0865217E0,-1.274031E-2,-5.4912725E-3,-3.7448686E-3,8.754406E-3,-4.7531854E-3,6.834203E-3,1.1429712E-2,-8.696855E-4],"categories":[],"categories_nodes":[],"categories_segments":[],"categories_sizes":[],"default_left":[0,0,0,0,0,0,0,0,0,0,0,0,0,0,0],"id":54,"left_children":[1,3,5,7,9,11,13,-1,-1,-1,-1,-1,-1,-1,-1],"loss_changes":[6.794918E1,1.8592705E1,1.1535328E1,7.7029686E0,8.833047E0,1.1606795E1,2.5476837E0,0E0,0E0,0E0,0E0,0E0,0E0,0E0,0E0],"parents":[2147483647,0,0,1,1,2,2,3,3,4,4,5,5,6,6],"right_children":[2,4,6,8,10,12,14,-1,-1,-1,-1,-1,-1,-1,-1],"split_conditions":[1.2973382E-1,4.9259484E-1,9.85915E-1,-5.9960574E-1,6.452562E-1,-4.9216056E-1,2.5062633E0,-1.274031E-2,-5.4912725E-3,-3.7448686E-3,8.754406E-3,-4.7531854E-3,6.834203E-3,1.1429712E-2,-8.696855E-4],"split_indices":[1,6,1,1,3,6,7,0,0,0,0,0,0,0,0],"split_type":[0,0,0,0,0,0,0,0,0,0,0,0,0,0,0],"sum_hessian":[1.5623257E2,8.420558E1,7.2026985E1,6.3199627E1,2.1005957E1,3.6067932E1,3.5959053E1,2.8383083E1,3.481654E1,1.1828499E1,9.177458E0,1.2463261E1,2.3604671E1,3.433348E1,1.6255711E0],"tree_param":{"num_deleted":"0","num_feature":"8","num_nodes":"15","size_leaf_vector":"1"}},{"base_weights":[-2.410645E-2,-1.1692787E0,2.9441786E-1,-1.4254932E0,-1.1739287E-1,-3.8066846E-3,1.1591942E0,-1.5493285E-2,2.777687E-4,-4.8133195E-3,5.7126735E-3,-1.117712E-2,1.9370283E-3,1.2099702E-2,3.5913992E-5],"categories":[],"categories_nodes":[],"categories_segments":[],"categories_sizes":[],"default_left":[0,0,0,0,0,0,0,0,0,0,0,0,0,0,0],"id":55,"left_children":[1,3,5,7,9,11,13,-1,-1,-1,-1,-1,-1,-1,-1],"loss_changes":[5.622417E1,8.87162E0,3.1121172E1,4.880497E0,2.1945195E0,2.0173973E1,1.8112679E0,0E0,0E0,0E0,0E0,0E0,0E0,0E0,0E0],"parents":[2147483647,0,0,1,1,2,2,3,3,4,4,5,5,6,6],"right_children":[2,4,6,8,10,12,14,-1,-1,-1,-1,-1,-1,-1,-1],"split_conditions":[-6.630265E-1,6.9086415E-1,1.0810462E0,9.380073E-1,-5.263527E-2,-6.586017E-1,2.7954075E0,-1.5493285E-2,2.777687E-4,-4.8133195E-3,5.7126735E-3,-1.117712E-2,1.9370283E-3,1.2099702E-2,3.5913992E-5],"split_indices":[1,5,1,6,4,5,6,0,0,0,0,0,0,0,0],"split_type":[0,0,0,0,0,0,0,0,0,0,0,0,0,0,0],"sum_hessian":[1.521942E2,3.2538708E1,1.1965549E2,2.5879818E1,6.6588893E0,8.971292E1,2.9942566E1,2.378681E1,2.0930078E0,4.5535283E0,2.1053612E0,1.28097925E1,7.690313E1,2.863723E1,1.3053364E0],"tree_param":{"num_deleted":"0","num_feature":"8","num_nodes":"15","size_leaf_vector":"1"}},{"base_weights":[2.9849561E-2,-7.561232E-1,5.537566E-1,-1.0939865E0,1.737404E-1,2.0174327E-1,1.1368004E0,-1.3853662E-2,-1.9862764E-3,-9.209415E-3,5.9901536E-3,-1.0958735E-2,4.2088204E-3,1.1819961E-2,3.5710473E-5],"categories":[],"categories_nodes":[],"categories_segments":[],"categories_sizes":[],"default_left":[0,0,0,0,0,0,0,0,0,0,0,0,0,0,0],"id":56,"left_children":[1,3,5,7,9,11,13,-1,-1,-1,-1,-1,-1,-1,-1],"loss_changes":[6.231406E1,1.9210598E1,1.840025E1,1.134602E1,8.465048E0,1.6901234E1,1.7348976E0,0E0,0E0,0E0,0E0,0E0,0E0,0E0,0E0],"parents":[2147483647,0,0,1,1,2,2,3,3,4,4,5,5,6,6],"right_children":[2,4,6,8,10,12,14,-1,-1,-1,-1,-1,-1,-1,-1],"split_conditions":[-1.8737033E-1,4.9259484E-1,1.0810462E0,2.2273305E-1,-5.440244E-1,-6.076785E-1,2.7954075E0,-1.3853662E-2,-1.9862764E-3,-9.209415E-3,5.9901536E-3,-1.0958735E-2,4.2088204E-3,1.1819961E-2,3.5710473E-5],"split_indices":[1,6,1,7,5,5,6,0,0,0,0,0,0,0,0],"split_type":[0,0,0,0,0,0,0,0,0,0,0,0,0,0,0],"sum_hessian":[1.4931293E2,5.9542774E1,8.977015E1,4.35445E1,1.5998275E1,5.6814407E1,3.295574E1,3.244012E1,1.1104376E1,4.150117E0,1.1848158E1,7.6304355E0,4.918397E1,3.1650417E1,1.3053223E0],"tree_param":{"num_deleted":"0","num_feature":"8","num_nodes":"15","size_leaf_vector":"1"}},{"base_weights":[1.5666276E-2,-5.827701E-1,6.4723885E-1,-1.122766E0,-1.09017484E-1,2.8696275E-1,1.1165727E0,1.4693908E-3,-1.2001084E-2,-9.1592735E-3,1.3828136E-3,-4.269611E-3,5.083959E-3,1.1836885E-2,1.8143522E-3],"categories":[],"categories_nodes":[],"categories_segments":[],"categories_sizes":[],"default_left":[0,0,0,0,0,0,0,0,0,0,0,0,0,0,0],"id":57,"left_children":[1,3,5,7,9,11,13,-1,-1,-1,-1,-1,-1,-1,-1],"loss_changes":[5.898223E1,2.0380335E1,1.2515886E1,3.843769E0,8.866433E0,7.2191343E0,1.8326378E0,0E0,0E0,0E0,0E0,0E0,0E0,0E0,0E0],"parents":[2147483647,0,0,1,1,2,2,3,3,4,4,5,5,6,6],"right_children":[2,4,6,8,10,12,14,-1,-1,-1,-1,-1,-1,-1,-1],"split_conditions":[1.2973382E-1,-3.692933E-1,1.0810462E0,-1.710012E0,-8.215786E-1,-7.075941E-1,1.8136821E0,1.4693908E-3,-1.2001084E-2,-9.1592735E-3,1.3828136E-3,-4.269611E-3,5.083959E-3,1.1836885E-2,1.8143522E-3],"split_indices":[1,7,1,2,1,7,6,0,0,0,0,0,0,0,0],"split_type":[0,0,0,0,0,0,0,0,0,0,0,0,0,0,0],"sum_hessian":[1.5405783E2,7.914374E1,7.49141E1,3.6345837E1,4.2797897E1,4.3292664E1,3.1621437E1,2.0351722E0,3.4310665E1,9.405388E0,3.339251E1,1.0029222E1,3.3263443E1,2.9255922E1,2.365516E0],"tree_param":{"num_deleted":"0","num_feature":"8","num_nodes":"15","size_leaf_vector":"1"}},{"base_weights":[3.7853584E-2,-4.7797662E-1,7.9486537E-1,-1.2724025E0,-2.4148482E-1,8.908298E-2,1.0425485E0,7.873624E-5,-1.4331807E-2,-6.3279276E-3,4.060478E-3,-5.234512E-3,6.259294E-3,1.118294E-2,4.3794215E-3],"categories":[],"categories_nodes":[],"categories_segments":[],"categories_sizes":[],"default_left":[0,0,0,0,0,0,0,0,0,0,0,0,0,0,0],"id":58,"left_children":[1,3,5,7,9,11,13,-1,-1,-1,-1,-1,-1,-1,-1],"loss_changes":[5.9007748E1,1.6586197E1,1.0609154E1,4.208992E0,1.812703E1,5.91683E0,1.5813332E0,0E0,0E0,0E0,0E0,0E0,0E0,0E0,0E0],"parents":[2147483647,0,0,1,1,2,2,3,3,4,4,5,5,6,6],"right_children":[2,4,6,8,10,12,14,-1,-1,-1,-1,-1,-1,-1,-1],"split_conditions":[2.8828588E-1,-6.331401E-1,-2.2575417E-1,-1.7534513E0,1.5323298E-1,7.956525E-1,2.1489685E0,7.873624E-5,-1.4331807E-2,-6.3279276E-3,4.060478E-3,-5.234512E-3,6.259294E-3,1.118294E-2,4.3794215E-3],"split_indices":[1,5,5,5,6,1,4,0,0,0,0,0,0,0,0],"split_type":[0,0,0,0,0,0,0,0,0,0,0,0,0,0,0],"sum_hessian":[1.4913928E2,8.8918526E1,6.0220764E1,1.9393005E1,6.952552E1,1.599684E1,4.4223923E1,2.2697823E0,1.7123222E1,4.3351006E1,2.6174515E1,7.483371E0,8.513469E0,3.8545315E1,5.678607E0],"tree_param":{"num_deleted":"0","num_feature":"8","num_nodes":"15","size_leaf_vector":"1"}},{"base_weights":[4.096869E-2,-6.435586E-1,3.5410824E-1,-1.1018894E0,-2.0741335E-1,-2.262056E-1,5.1267606E-1,-4.355218E-3,-1.2654204E-2,-5.9637898E-3,2.7144449E-3,-6.7430916E-3,4.870951E-3,1.8374261E-3,6.9430554E-3],"categories":[],"categories_nodes":[],"categories_segments":[],"categories_sizes":[],"default_left":[0,0,0,0,0,0,0,0,0,0,0,0,0,0,0],"id":59,"left_children":[1,3,5,7,9,11,13,-1,-1,-1,-1,-1,-1,-1,-1],"loss_changes":[3.325207E1,9.508831E0,9.9025E0,2.0118732E0,5.040337E0,7.845512E0,4.881092E0,0E0,0E0,0E0,0E0,0E0,0E0,0E0,0E0],"parents":[2147483647,0,0,1,1,2,2,3,3,4,4,5,5,6,6],"right_children":[2,4,6,8,10,12,14,-1,-1,-1,-1,-1,-1,-1,-1],"split_conditions":[-2.894082E-1,-4.538685E-1,-7.075941E-1,-8.695591E-1,-5.8221686E-1,1.5323298E-1,-4.618604E-1,-4.355218E-3,-1.2654204E-2,-5.9637898E-3,2.7144449E-3,-6.7430916E-3,4.870951E-3,1.8374261E-3,6.9430554E-3],"split_indices":[5,7,7,3,5,6,6,0,0,0,0,0,0,0,0],"split_type":[0,0,0,0,0,0,0,0,0,0,0,0,0,0,0],"sum_hessian":[1.5306477E2,4.7711533E1,1.0535323E2,2.2519794E1,2.5191736E1,2.2517807E1,8.283543E1,5.1593523E0,1.7360443E1,1.3765171E1,1.1426564E1,1.3863354E1,8.654453E0,3.0183798E1,5.265163E1],"tree_param":{"num_deleted":"0","num_feature":"8","num_nodes":"15","size_leaf_vector":"1"}},{"base_weights":[4.0272336E-2,-4.6092883E-1,6.7890644E-1,-1.0144501E0,3.300827E-2,2.7836734E-1,1.0968125E0,-1.11150835E-2,1.7730984E-3,-6.642619E-3,3.2500583E-3,-4.7729653E-3,6.201577E-3,1.1420731E-2,-5.8012818E-5],"categories":[],"categories_nodes":[],"categories_segments":[],"categories_sizes":[],"default_left":[0,0,0,0,0,0,0,0,0,0,0,0,0,0,0],"id":60,"left_children":[1,3,5,7,9,11,13,-1,-1,-1,-1,-1,-1,-1,-1],"loss_changes":[4.9708668E1,2.3835993E1,1.1120819E1,4.9494057E0,9.779946E0,9.644419E0,1.6567993E0,0E0,0E0,0E0,0E0,0E0,0E0,0E0,0E0],"parents":[2147483647,0,0,1,1,2,2,3,3,4,4,5,5,6,6],"right_children":[2,4,6,8,10,12,14,-1,-1,-1,-1,-1,-1,-1,-1],"split_conditions":[2.2486505E-1,-3.692933E-1,1.0810462E0,3.5657564E-1,-6.313161E-1,-2.512158E-1,2.7954075E0,-1.11150835E-2,1.7730984E-3,-6.642619E-3,3.2500583E-3,-4.7729653E-3,6.201577E-3,1.1420731E-2,-5.8012818E-5],"split_indices":[1,7,1,0,1,5,6,0,0,0,0,0,0,0,0],"split_type":[0,0,0,0,0,0,0,0,0,0,0,0,0,0,0],"sum_hessian":[1.5332109E2,8.6059616E1,6.726148E1,4.008515E1,4.5974464E1,3.519509E1,3.2066387E1,3.712869E1,2.9564652E0,1.3193766E1,3.27807E1,1.0837661E1,2.435743E1,3.0767637E1,1.2987514E0],"tree_param":{"num_deleted":"0","num_feature":"8","num_nodes":"15","size_leaf_vector":"1"}},{"base_weights":[8.867001E-3,-5.294547E-1,6.0231453E-1,-8.0103576E-1,2.912549E-1,-5.8723833E-2,8.247084E-1,-1.1605543E-2,-3.0412332E-3,-9.3764495E-3,6.8365913E-3,1.8928194E-3,-1.3828819E-2,5.529713E-3,1.130612E-2],"categories":[],"categories_nodes":[],"categories_segments":[],"categories_sizes":[],"default_left":[0,0,0,0,0,0,0,0,0,0,0,0,0,0,0],"id":61,"left_children":[1,3,5,7,9,11,13,-1,-1,-1,-1,-1,-1,-1,-1],"loss_changes":[4.9976574E1,1.8518606E1,1.0986357E1,1.0706673E1,1.083081E1,6.7191963E0,4.00811E0,0E0,0E0,0E0,0E0,0E0,0E0,0E0,0E0],"parents":[2147483647,0,0,1,1,2,2,3,3,4,4,5,5,6,6],"right_children":[2,4,6,8,10,12,14,-1,-1,-1,-1,-1,-1,-1,-1],"split_conditions":[1.2973382E-1,4.9259484E-1,-2.512158E-1,-2.8471813E-1,-7.3498654E-1,2.337113E0,1.1761775E0,-1.1605543E-2,-3.0412332E-3,-9.3764495E-3,6.8365913E-3,1.8928194E-3,-1.3828819E-2,5.529713E-3,1.130612E-2],"split_indices":[1,6,5,7,5,7,1,0,0,0,0,0,0,0,0],"split_type":[0,0,0,0,0,0,0,0,0,0,0,0,0,0,0],"sum_hessian":[1.5443977E2,8.103763E1,7.3402145E1,6.09069E1,2.0130733E1,1.8663412E1,5.4738735E1,3.4564083E1,2.6342812E1,4.5359435E0,1.559479E1,1.6441153E1,2.2222607E0,3.0475088E1,2.4263647E1],"tree_param":{"num_deleted":"0","num_feature":"8","num_nodes":"15","size_leaf_vector":"1"}},{"base_weights":[4.978664E-2,-4.4930318E-1,7.346296E-1,-9.594983E-1,-2.7175926E-2,3.990669E-1,1.2079654E0,-1.2651198E-2,-6.452499E-3,-6.8109715E-3,2.869202E-3,-5.1147877E-3,5.467429E-3,1.2710121E-2,-1.2169198E-4],"categories":[],"categories_nodes":[],"categories_segments":[],"categories_sizes":[],"default_left":[0,0,0,0,0,0,0,0,0,0,0,0,0,0,0],"id":62,"left_children":[1,3,5,7,9,11,13,-1,-1,-1,-1,-1,-1,-1,-1],"loss_changes":[5.2848167E1,1.9249361E1,9.866287E0,3.0727577E0,1.0466452E1,5.606882E0,2.0566292E0,0E0,0E0,0E0,0E0,0E0,0E0,0E0,0E0],"parents":[2147483647,0,0,1,1,2,2,3,3,4,4,5,5,6,6],"right_children":[2,4,6,8,10,12,14,-1,-1,-1,-1,-1,-1,-1,-1],"split_conditions":[2.2486505E-1,-4.538685E-1,1.1761775E0,-5.9960574E-1,-6.630265E-1,-7.739521E-1,2.7954075E0,-1.2651198E-2,-6.452499E-3,-6.8109715E-3,2.869202E-3,-5.1147877E-3,5.467429E-3,1.2710121E-2,-1.2169198E-4],"split_indices":[1,7,1,1,1,6,6,0,0,0,0,0,0,0,0],"split_type":[0,0,0,0,0,0,0,0,0,0,0,0,0,0,0],"sum_hessian":[1.5265237E2,8.850033E1,6.415204E1,3.9493885E1,4.9006447E1,3.8617775E1,2.5534267E1,1.8487778E1,2.1006105E1,1.5522175E1,3.3484272E1,5.0453663E0,3.3572407E1,2.4240038E1,1.2942296E0],"tree_param":{"num_deleted":"0","num_feature":"8","num_nodes":"15","size_leaf_vector":"1"}},{"base_weights":[2.0139195E-2,-5.6659305E-1,6.5055496E-1,-6.81799E-1,1.1923597E0,-1.5721594E-1,9.2937386E-1,-1.0443182E-2,-2.3761652E-3,1.4899839E-2,2.343187E-3,-1.1124969E-2,2.2461324E-3,6.7514726E-3,1.2238537E-2],"categories":[],"categories_nodes":[],"categories_segments":[],"categories_sizes":[],"default_left":[0,0,0,0,0,0,0,0,0,0,0,0,0,0,0],"id":63,"left_children":[1,3,5,7,9,11,13,-1,-1,-1,-1,-1,-1,-1,-1],"loss_changes":[5.6048275E1,1.6720724E1,1.6594135E1,1.1718006E1,1.1305437E0,7.3972015E0,3.2490082E0,0E0,0E0,0E0,0E0,0E0,0E0,0E0,0E0],"parents":[2147483647,0,0,1,1,2,2,3,3,4,4,5,5,6,6],"right_children":[2,4,6,8,10,12,14,-1,-1,-1,-1,-1,-1,-1,-1],"split_conditions":[1.2973382E-1,1.7093289E0,-2.512158E-1,-2.8471813E-1,1.0167878E0,-5.384437E-1,1.1761775E0,-1.0443182E-2,-2.3761652E-3,1.4899839E-2,2.343187E-3,-1.1124969E-2,2.2461324E-3,6.7514726E-3,1.2238537E-2],"split_indices":[1,5,5,7,6,7,1,0,0,0,0,0,0,0,0],"split_type":[0,0,0,0,0,0,0,0,0,0,0,0,0,0,0],"sum_hessian":[1.4953229E2,7.750194E1,7.203034E1,7.331258E1,4.1893625E0,1.8594894E1,5.3435448E1,3.9623104E1,3.3689472E1,2.7727437E0,1.4166188E0,4.763561E0,1.3831334E1,3.0444862E1,2.2990585E1],"tree_param":{"num_deleted":"0","num_feature":"8","num_nodes":"15","size_leaf_vector":"1"}},{"base_weights":[-4.577862E-2,-5.489624E-1,6.2129354E-1,-1.1584092E0,-2.55799E-1,-2.3032214E-1,8.996822E-1,-1.3677362E-2,-3.2693747E-4,1.8512048E-3,-6.3633095E-3,-7.2993045E-3,6.612652E-3,4.0667E-3,1.0752337E-2],"categories":[],"categories_nodes":[],"categories_segments":[],"categories_sizes":[],"default_left":[0,0,0,0,0,0,0,0,0,0,0,0,0,0,0],"id":64,"left_children":[1,3,5,7,9,11,13,-1,-1,-1,-1,-1,-1,-1,-1],"loss_changes":[5.1474396E1,1.5313194E1,1.5847507E1,6.5751266E0,1.0230727E1,8.07693E0,3.8834114E0,0E0,0E0,0E0,0E0,0E0,0E0,0E0,0E0],"parents":[2147483647,0,0,1,1,2,2,3,3,4,4,5,5,6,6],"right_children":[2,4,6,8,10,12,14,-1,-1,-1,-1,-1,-1,-1,-1],"split_conditions":[2.2486505E-1,-3.912547E-1,-2.512158E-1,1.2625237E0,-5.9142435E-1,1.0810462E0,-5.2246076E-1,-1.3677362E-2,-3.2693747E-4,1.8512048E-3,-6.3633095E-3,-7.2993045E-3,6.612652E-3,4.0667E-3,1.0752337E-2],"split_indices":[1,5,5,0,4,1,6,0,0,0,0,0,0,0,0],"split_type":[0,0,0,0,0,0,0,0,0,0,0,0,0,0,0],"sum_hessian":[1.5133672E2,8.636626E1,6.497047E1,2.7092733E1,5.927352E1,1.6048708E1,4.8921757E1,2.2663465E1,4.429268E0,2.7695955E1,3.1577568E1,1.0401471E1,5.647237E0,1.3716728E1,3.520503E1],"tree_param":{"num_deleted":"0","num_feature":"8","num_nodes":"15","size_leaf_vector":"1"}},{"base_weights":[-5.1533658E-2,-7.087268E-1,2.6414022E-1,-1.1455154E0,-2.9768664E-1,-2.7192578E-1,4.908621E-1,-5.856446E-3,-1.4249767E-2,-1.1463609E-3,-1.40203815E-2,3.7031674E-3,-6.4674285E-3,2.36671E-3,8.36327E-3],"categories":[],"categories_nodes":[],"categories_segments":[],"categories_sizes":[],"default_left":[0,0,0,0,0,0,0,0,0,0,0,0,0,0,0],"id":65,"left_children":[1,3,5,7,9,11,13,-1,-1,-1,-1,-1,-1,-1,-1],"loss_changes":[3.1306128E1,8.446173E0,1.25372925E1,2.8231468E0,5.209651E0,7.696575E0,6.1316566E0,0E0,0E0,0E0,0E0,0E0,0E0,0E0,0E0],"parents":[2147483647,0,0,1,1,2,2,3,3,4,4,5,5,6,6],"right_children":[2,4,6,8,10,12,14,-1,-1,-1,-1,-1,-1,-1,-1],"split_conditions":[-2.639466E-1,-4.538685E-1,-5.384437E-1,-4.2773795E-1,2.337113E0,-8.513551E-1,4.025486E-1,-5.856446E-3,-1.4249767E-2,-1.1463609E-3,-1.40203815E-2,3.7031674E-3,-6.4674285E-3,2.36671E-3,8.36327E-3],"split_indices":[5,7,7,3,7,0,4,0,0,0,0,0,0,0,0],"split_type":[0,0,0,0,0,0,0,0,0,0,0,0,0,0,0],"sum_hessian":[1.4900055E2,4.7943375E1,1.0105718E2,2.2377373E1,2.5566004E1,2.9977758E1,7.107942E1,8.481405E0,1.3895967E1,2.2877733E1,2.6882691E0,1.1052133E1,1.8925625E1,4.192001E1,2.9159414E1],"tree_param":{"num_deleted":"0","num_feature":"8","num_nodes":"15","size_leaf_vector":"1"}},{"base_weights":[5.2561373E-2,-4.3145034E-1,6.901846E-1,-6.426206E-1,2.1064311E-1,3.4960896E-1,1.2203425E0,-9.549319E-3,2.9725092E-5,-1.0009516E-2,5.2160057E-3,-5.2270745E-3,7.859117E-3,1.2861867E-2,-2.565544E-4],"categories":[],"categories_nodes":[],"categories_segments":[],"categories_sizes":[],"default_left":[0,0,0,0,0,0,0,0,0,0,0,0,0,0,0],"id":66,"left_children":[1,3,5,7,9,11,13,-1,-1,-1,-1,-1,-1,-1,-1],"loss_changes":[4.8259247E1,1.2197678E1,1.1751457E1,1.355035E1,9.100673E0,1.6573627E1,2.1643906E0,0E0,0E0,0E0,0E0,0E0,0E0,0E0,0E0],"parents":[2147483647,0,0,1,1,2,2,3,3,4,4,5,5,6,6],"right_children":[2,4,6,8,10,12,14,-1,-1,-1,-1,-1,-1,-1,-1],"split_conditions":[2.2486505E-1,4.9259484E-1,1.3030192E0,-1.8737033E-1,-4.5916823E-1,-5.2246076E-1,2.7954075E0,-9.549319E-3,2.9725092E-5,-1.0009516E-2,5.2160057E-3,-5.2270745E-3,7.859117E-3,1.2861867E-2,-2.565544E-4],"split_indices":[1,6,1,1,2,6,6,0,0,0,0,0,0,0,0],"split_type":[0,0,0,0,0,0,0,0,0,0,0,0,0,0,0],"sum_hessian":[1.5440767E2,8.796097E1,6.644671E1,6.619129E1,2.176967E1,4.1467358E1,2.4979353E1,4.428762E1,2.1903673E1,3.9929326E0,1.777674E1,1.37594795E1,2.7707878E1,2.369495E1,1.2844043E0],"tree_param":{"num_deleted":"0","num_feature":"8","num_nodes":"15","size_leaf_vector":"1"}},{"base_weights":[3.4939617E-2,-6.7915475E-1,4.8325533E-1,-9.857293E-1,2.5822774E-1,-2.2497073E-1,6.605926E-1,-1.19574675E-2,-5.3014075E-3,-6.2782746E-3,1.1099156E-2,-7.760292E-3,8.998178E-3,4.843239E-3,1.1195838E-2],"categories":[],"categories_nodes":[],"categories_segments":[],"categories_sizes":[],"default_left":[0,0,0,0,0,0,0,0,0,0,0,0,0,0,0],"id":67,"left_children":[1,3,5,7,9,11,13,-1,-1,-1,-1,-1,-1,-1,-1],"loss_changes":[4.9297756E1,1.7327698E1,1.202397E1,3.669468E0,1.2344074E1,1.2896748E1,5.5962753E0,0E0,0E0,0E0,0E0,0E0,0E0,0E0,0E0],"parents":[2147483647,0,0,1,1,2,2,3,3,4,4,5,5,6,6],"right_children":[2,4,6,8,10,12,14,-1,-1,-1,-1,-1,-1,-1,-1],"split_conditions":[-1.8737033E-1,4.9259484E-1,-4.8037037E-1,3.5657564E-1,5.821389E-1,7.956525E-1,9.60541E-1,-1.19574675E-2,-5.3014075E-3,-6.2782746E-3,1.1099156E-2,-7.760292E-3,8.998178E-3,4.843239E-3,1.1195838E-2],"split_indices":[1,6,5,0,3,1,0,0,0,0,0,0,0,0,0],"split_type":[0,0,0,0,0,0,0,0,0,0,0,0,0,0,0],"sum_hessian":[1.5196304E2,5.841018E1,9.3552864E1,4.3976063E1,1.4434114E1,1.8680517E1,7.487235E1,2.8988365E1,1.49876995E1,7.203148E0,7.2309666E0,1.2746027E1,5.934491E0,5.5582077E1,1.9290272E1],"tree_param":{"num_deleted":"0","num_feature":"8","num_nodes":"15","size_leaf_vector":"1"}},{"base_weights":[-9.7206794E-2,-6.6995454E-1,3.0480438E-1,-9.035964E-1,7.554192E-1,-5.6942475E-1,4.7122496E-1,-2.9231736E-3,-1.07901655E-2,6.8596547E-4,1.0187849E-2,9.4326516E-4,-1.00022005E-2,2.4433385E-3,9.033445E-3],"categories":[],"categories_nodes":[],"categories_segments":[],"categories_sizes":[],"default_left":[0,0,0,0,0,0,0,0,0,0,0,0,0,0,0],"id":68,"left_children":[1,3,5,7,9,11,13,-1,-1,-1,-1,-1,-1,-1,-1],"loss_changes":[3.3789066E1,2.082048E1,1.2837577E1,5.3043976E0,1.5690536E0,4.174362E0,6.948656E0,0E0,0E0,0E0,0E0,0E0,0E0,0E0,0E0],"parents":[2147483647,0,0,1,1,2,2,3,3,4,4,5,5,6,6],"right_children":[2,4,6,8,10,12,14,-1,-1,-1,-1,-1,-1,-1,-1],"split_conditions":[-3.692933E-1,1.2764814E0,-5.8221686E-1,-8.513551E-1,-7.921693E-1,-1.0277952E0,4.30417E-1,-2.9231736E-3,-1.07901655E-2,6.8596547E-4,1.0187849E-2,9.4326516E-4,-1.00022005E-2,2.4433385E-3,9.033445E-3],"split_indices":[7,5,5,0,7,5,4,0,0,0,0,0,0,0,0],"split_type":[0,0,0,0,0,0,0,0,0,0,0,0,0,0,0],"sum_hessian":[1.4486195E2,5.9469246E1,8.53927E1,5.1408607E1,8.060638E0,1.3268729E1,7.212398E1,1.2057779E1,3.9350826E1,2.5835497E0,5.477089E0,5.5297565E0,7.7389727E0,4.8318848E1,2.3805128E1],"tree_param":{"num_deleted":"0","num_feature":"8","num_nodes":"15","size_leaf_vector":"1"}},{"base_weights":[3.4108076E-3,-4.3922332E-1,7.4344826E-1,-1.1326208E0,-1.5163378E-1,3.6882964E-1,1.1121604E0,-1.226808E-2,-9.634219E-4,-3.23538E-3,6.2033003E-3,1.5622324E-3,1.2108061E-2,4.110806E-3,1.2003435E-2],"categories":[],"categories_nodes":[],"categories_segments":[],"categories_sizes":[],"default_left":[0,0,0,0,0,0,0,0,0,0,0,0,0,0,0],"id":69,"left_children":[1,3,5,7,9,11,13,-1,-1,-1,-1,-1,-1,-1,-1],"loss_changes":[4.875279E1,1.840067E1,7.283678E0,2.5316849E0,9.089973E0,5.0246267E0,1.2114029E0,0E0,0E0,0E0,0E0,0E0,0E0,0E0,0E0],"parents":[2147483647,0,0,1,1,2,2,3,3,4,4,5,5,6,6],"right_children":[2,4,6,8,10,12,14,-1,-1,-1,-1,-1,-1,-1,-1],"split_conditions":[3.8341713E-1,-5.185628E-1,1.1761775E0,1.866489E0,9.60541E-1,1.2764814E0,-2.639466E-1,-1.226808E-2,-9.634219E-4,-3.23538E-3,6.2033003E-3,1.5622324E-3,1.2108061E-2,4.110806E-3,1.2003435E-2],"split_indices":[1,5,1,0,0,5,5,0,0,0,0,0,0,0,0],"split_type":[0,0,0,0,0,0,0,0,0,0,0,0,0,0,0],"sum_hessian":[1.4683669E2,9.213502E1,5.470167E1,2.6149208E1,6.598581E1,2.8125721E1,2.657595E1,2.3801989E1,2.3472195E0,5.4443077E1,1.154273E1,2.3402044E1,4.723677E0,3.6018572E0,2.2974092E1],"tree_param":{"num_deleted":"0","num_feature":"8","num_nodes":"15","size_leaf_vector":"1"}},{"base_weights":[2.568089E-2,-8.081255E-1,2.663557E-1,-1.0140036E0,-1.6470696E-1,-3.3878066E-2,6.5805334E-1,2.5260057E-3,-1.1198321E-2,6.905166E-3,-1.0414759E-2,-1.7850709E-3,1.3558231E-2,3.4555255E-3,9.161421E-3],"categories":[],"categories_nodes":[],"categories_segments":[],"categories_sizes":[],"default_left":[0,0,0,0,0,0,0,0,0,0,0,0,0,0,0],"id":70,"left_children":[1,3,5,7,9,11,13,-1,-1,-1,-1,-1,-1,-1,-1],"loss_changes":[3.0622797E1,4.3617706E0,1.3938838E1,3.7286797E0,7.828724E0,1.3897537E1,3.828682E0,0E0,0E0,0E0,0E0,0E0,0E0,0E0,0E0],"parents":[2147483647,0,0,1,1,2,2,3,3,4,4,5,5,6,6],"right_children":[2,4,6,8,10,12,14,-1,-1,-1,-1,-1,-1,-1,-1],"split_conditions":[-5.185628E-1,8.147594E-1,9.566266E-2,-2.471395E0,1.9142369E0,1.7093289E0,-1.1556773E-1,2.5260057E-3,-1.1198321E-2,6.905166E-3,-1.0414759E-2,-1.7850709E-3,1.3558231E-2,3.4555255E-3,9.161421E-3],"split_indices":[5,7,6,2,7,5,7,0,0,0,0,0,0,0,0],"split_type":[0,0,0,0,0,0,0,0,0,0,0,0,0,0,0],"sum_hessian":[1.5052544E2,3.318832E1,1.17337105E2,2.4706793E1,8.481529E0,6.6940865E1,5.039624E1,1.7982019E0,2.290859E1,4.401055E0,4.080475E0,6.1420284E1,5.520583E0,2.3853132E1,2.654311E1],"tree_param":{"num_deleted":"0","num_feature":"8","num_nodes":"15","size_leaf_vector":"1"}},{"base_weights":[-8.824187E-3,-7.8014576E-1,2.729356E-1,-1.0607437E0,2.519234E-1,-3.4973478E-1,4.41216E-1,-1.1659262E-2,-4.1381116E-3,7.5141173E-3,-1.1122653E-2,-8.203879E-3,3.8129103E-3,3.7220754E-3,1.4155934E-2],"categories":[],"categories_nodes":[],"categories_segments":[],"categories_sizes":[],"default_left":[0,0,0,0,0,0,0,0,0,0,0,0,0,0,0],"id":71,"left_children":[1,3,5,7,9,11,13,-1,-1,-1,-1,-1,-1,-1,-1],"loss_changes":[3.2529766E1,1.1864199E1,1.1644402E1,1.6730232E0,7.219246E0,8.531666E0,5.3074074E0,0E0,0E0,0E0,0E0,0E0,0E0,0E0,0E0],"parents":[2147483647,0,0,1,1,2,2,3,3,4,4,5,5,6,6],"right_children":[2,4,6,8,10,12,14,-1,-1,-1,-1,-1,-1,-1,-1],"split_conditions":[-4.039855E-1,1.2625237E0,-7.075941E-1,6.45609E-1,1.8296617E0,1.5323298E-1,2.027599E0,-1.1659262E-2,-4.1381116E-3,7.5141173E-3,-1.1122653E-2,-8.203879E-3,3.8129103E-3,3.7220754E-3,1.4155934E-2],"split_indices":[5,0,7,7,7,6,5,0,0,0,0,0,0,0,0],"split_type":[0,0,0,0,0,0,0,0,0,0,0,0,0,0,0],"sum_hessian":[1.4770114E2,3.904528E1,1.0865587E2,3.0677052E1,8.368229E0,2.2887894E1,8.5767975E1,2.569685E1,4.9802027E0,6.4542413E0,1.913988E0,1.3849188E1,9.038705E0,8.138596E1,4.3820114E0],"tree_param":{"num_deleted":"0","num_feature":"8","num_nodes":"15","size_leaf_vector":"1"}},{"base_weights":[-1.22792415E-1,-5.3070086E-1,9.111519E-1,-1.1938634E0,-2.5886744E-1,4.2445424E-1,1.122897E0,-1.4072598E-2,-5.152963E-3,-1.04834605E-2,9.0074245E-5,-2.6439792E-3,9.036843E-3,1.1771932E-2,-1.3241547E-4],"categories":[],"categories_nodes":[],"categories_segments":[],"categories_sizes":[],"default_left":[0,0,0,0,0,0,0,0,0,0,0,0,0,0,0],"id":72,"left_children":[1,3,5,7,9,11,13,-1,-1,-1,-1,-1,-1,-1,-1],"loss_changes":[6.230877E1,1.8754675E1,3.8351707E0,3.6867828E0,1.6141829E1,4.957005E0,1.7766151E0,0E0,0E0,0E0,0E0,0E0,0E0,0E0,0E0],"parents":[2147483647,0,0,1,1,2,2,3,3,4,4,5,5,6,6],"right_children":[2,4,6,8,10,12,14,-1,-1,-1,-1,-1,-1,-1,-1],"split_conditions":[7.322317E-1,-5.185628E-1,-4.5277035E-1,5.6103384E-1,-6.630265E-1,1.2078879E0,2.7954075E0,-1.4072598E-2,-5.152963E-3,-1.04834605E-2,9.0074245E-5,-2.6439792E-3,9.036843E-3,1.1771932E-2,-1.3241547E-4],"split_indices":[1,5,6,7,1,1,6,0,0,0,0,0,0,0,0],"split_type":[0,0,0,0,0,0,0,0,0,0,0,0,0,0,0],"sum_hessian":[1.455905E2,1.0475114E2,4.0839363E1,2.9468391E1,7.5282745E1,1.3292051E1,2.7547314E1,2.1601318E1,7.8670735E0,1.8334347E1,5.69484E1,5.637259E0,7.654792E0,2.6256382E1,1.290932E0],"tree_param":{"num_deleted":"0","num_feature":"8","num_nodes":"15","size_leaf_vector":"1"}},{"base_weights":[-7.47716E-2,-5.3876466E-1,5.4642993E-1,-9.831266E-1,-9.6137114E-2,-1.20025035E-2,6.2071615E-1,-1.0804592E-2,5.854811E-3,-2.914764E-3,8.723899E-3,3.349036E-3,1.1014382E-2],"categories":[],"categories_nodes":[],"categories_segments":[],"categories_sizes":[],"default_left":[0,0,0,0,0,0,0,0,0,0,0,0,0],"id":73,"left_children":[1,3,5,7,9,-1,11,-1,-1,-1,-1,-1,-1],"loss_changes":[4.2603615E1,1.6531412E1,8.953035E0,7.0562973E0,8.475782E0,0E0,8.058565E0,0E0,0E0,0E0,0E0,0E0,0E0],"parents":[2147483647,0,0,1,1,2,2,3,3,4,4,6,6],"right_children":[2,4,6,8,10,-1,12,-1,-1,-1,-1,-1,-1],"split_conditions":[2.2486505E-1,-3.692933E-1,-1.1169108E0,1.3783278E0,5.8833796E-1,-1.20025035E-2,1.2078879E0,-1.0804592E-2,5.854811E-3,-2.914764E-3,8.723899E-3,3.349036E-3,1.1014382E-2],"split_indices":[1,7,5,5,4,0,1,0,0,0,0,0,0],"split_type":[0,0,0,0,0,0,0,0,0,0,0,0,0],"sum_hessian":[1.4578815E2,8.352995E1,6.225819E1,4.1073948E1,4.2456005E1,1.9214859E0,6.0336704E1,3.8967216E1,2.106729E0,3.591206E1,6.5439434E0,3.8903416E1,2.143329E1],"tree_param":{"num_deleted":"0","num_feature":"8","num_nodes":"13","size_leaf_vector":"1"}},{"base_weights":[3.8667094E-2,-4.1027862E-1,7.1983165E-1,-9.0555674E-1,5.0514497E-2,4.894834E-2,9.334825E-1,-9.69952E-3,7.7726822E-3,-1.1567705E-2,2.9054247E-3,-6.7144358E-3,7.615135E-3,1.0749256E-2,2.1577494E-3],"categories":[],"categories_nodes":[],"categories_segments":[],"categories_sizes":[],"default_left":[0,0,0,0,0,0,0,0,0,0,0,0,0,0,0],"id":74,"left_children":[1,3,5,7,9,11,13,-1,-1,-1,-1,-1,-1,-1,-1],"loss_changes":[4.5857105E1,2.0685791E1,8.489931E0,5.483143E0,1.4187008E1,8.436628E0,4.3475037E0,0E0,0E0,0E0,0E0,0E0,0E0,0E0,0E0],"parents":[2147483647,0,0,1,1,2,2,3,3,4,4,5,5,6,6],"right_children":[2,4,6,8,10,12,14,-1,-1,-1,-1,-1,-1,-1,-1],"split_conditions":[2.8828588E-1,-3.692933E-1,-2.512158E-1,1.6584057E0,-6.7133254E-1,7.956525E-1,1.6659161E0,-9.69952E-3,7.7726822E-3,-1.1567705E-2,2.9054247E-3,-6.7144358E-3,7.615135E-3,1.0749256E-2,2.1577494E-3],"split_indices":[1,7,5,5,5,1,4,0,0,0,0,0,0,0,0],"split_type":[0,0,0,0,0,0,0,0,0,0,0,0,0,0,0],"sum_hessian":[1.479892E2,8.943896E1,5.8550243E1,4.264127E1,4.6797684E1,1.4439137E1,4.4111107E1,4.147769E1,1.1635759E0,7.127699E0,3.9669987E1,7.2088327E0,7.2303047E0,3.6433254E1,7.6778493E0],"tree_param":{"num_deleted":"0","num_feature":"8","num_nodes":"15","size_leaf_vector":"1"}},{"base_weights":[-4.0974587E-2,-4.7808754E-1,7.46297E-1,-1.2288E0,-2.6450616E-1,7.02436E-2,9.763373E-1,-1.2944636E-2,-1.3483445E-4,-3.4806016E-3,9.432603E-3,-5.1504034E-3,5.335003E-3,1.0496667E-2,2.386608E-3],"categories":[],"categories_nodes":[],"categories_segments":[],"categories_sizes":[],"default_left":[0,0,0,0,0,0,0,0,0,0,0,0,0,0,0],"id":75,"left_children":[1,3,5,7,9,11,13,-1,-1,-1,-1,-1,-1,-1,-1],"loss_changes":[5.3672573E1,1.5745518E1,8.59412E0,1.732235E0,8.331129E0,4.4012437E0,1.9934158E0,0E0,0E0,0E0,0E0,0E0,0E0,0E0,0E0],"parents":[2147483647,0,0,1,1,2,2,3,3,4,4,5,5,6,6],"right_children":[2,4,6,8,10,12,14,-1,-1,-1,-1,-1,-1,-1,-1],"split_conditions":[4.1512755E-1,-6.331401E-1,-2.512158E-1,1.3355206E0,1.9288228E0,7.956525E-1,1.8136821E0,-1.2944636E-2,-1.3483445E-4,-3.4806016E-3,9.432603E-3,-5.1504034E-3,5.335003E-3,1.0496667E-2,2.386608E-3],"split_indices":[1,5,5,2,6,1,6,0,0,0,0,0,0,0,0],"split_type":[0,0,0,0,0,0,0,0,0,0,0,0,0,0,0],"sum_hessian":[1.539307E2,9.9229E1,5.4701702E1,2.0925413E1,7.830358E1,1.4219146E1,4.0482555E1,1.9790983E1,1.1344305E0,7.390276E1,4.4008217E0,6.2327876E0,7.9863577E0,3.6437515E1,4.0450406E0],"tree_param":{"num_deleted":"0","num_feature":"8","num_nodes":"15","size_leaf_vector":"1"}},{"base_weights":[4.7090173E-2,-2.4723472E-1,1.1500748E0,-9.206346E-1,-2.2683796E-4,1.2038491E0,-8.857309E-4,-1.1879722E-2,-1.5556994E-4,-1.5294784E-3,6.657218E-3,6.232419E-3,1.2688609E-2],"categories":[],"categories_nodes":[],"categories_segments":[],"categories_sizes":[],"default_left":[0,0,0,0,0,0,0,0,0,0,0,0,0],"id":76,"left_children":[1,3,5,7,9,11,-1,-1,-1,-1,-1,-1,-1],"loss_changes":[4.8304802E1,1.9558548E1,2.1937447E0,7.616894E0,8.953179E0,3.453369E-1,0E0,0E0,0E0,0E0,0E0,0E0,0E0],"parents":[2147483647,0,0,1,1,2,2,3,3,4,4,5,5],"right_children":[2,4,6,8,10,12,-1,-1,-1,-1,-1,-1,-1],"split_conditions":[1.0810462E0,-6.630265E-1,4.313414E0,5.2895504E-1,1.2625237E0,-8.1334233E-1,-8.857309E-4,-1.1879722E-2,-1.5556994E-4,-1.5294784E-3,6.657218E-3,6.232419E-3,1.2688609E-2],"split_indices":[1,1,4,6,0,6,0,0,0,0,0,0,0],"split_type":[0,0,0,0,0,0,0,0,0,0,0,0,0],"sum_hessian":[1.4692104E2,1.1658647E2,3.0334558E1,3.0556185E1,8.603029E1,2.9099342E1,1.235216E0,2.3347382E1,7.208804E0,7.0608154E1,1.5422132E1,3.9962518E0,2.510309E1],"tree_param":{"num_deleted":"0","num_feature":"8","num_nodes":"13","size_leaf_vector":"1"}},{"base_weights":[5.029456E-2,-3.9901647E-1,7.967825E-1,-9.0878844E-1,3.0651882E-2,4.3923432E-1,1.1384474E0,-1.0051281E-2,1.2164694E-2,-9.755055E-3,2.266551E-3,-5.702201E-3,6.0689705E-3,1.1945301E-2,-5.7742716E-4],"categories":[],"categories_nodes":[],"categories_segments":[],"categories_sizes":[],"default_left":[0,0,0,0,0,0,0,0,0,0,0,0,0,0,0],"id":77,"left_children":[1,3,5,7,9,11,13,-1,-1,-1,-1,-1,-1,-1,-1],"loss_changes":[5.203029E1,2.1255154E1,6.6177025E0,1.0304794E1,1.0782894E1,5.440243E0,2.0256004E0,0E0,0E0,0E0,0E0,0E0,0E0,0E0,0E0],"parents":[2147483647,0,0,1,1,2,2,3,3,4,4,5,5,6,6],"right_children":[2,4,6,8,10,12,14,-1,-1,-1,-1,-1,-1,-1,-1],"split_conditions":[3.8341713E-1,-4.538685E-1,1.1761775E0,1.7093289E0,-6.331401E-1,-7.739521E-1,2.4681656E0,-1.0051281E-2,1.2164694E-2,-9.755055E-3,2.266551E-3,-5.702201E-3,6.0689705E-3,1.1945301E-2,-5.7742716E-4],"split_indices":[1,7,1,5,5,6,6,0,0,0,0,0,0,0,0],"split_type":[0,0,0,0,0,0,0,0,0,0,0,0,0,0,0],"sum_hessian":[1.5317874E2,9.591374E1,5.7265E1,4.3357708E1,5.2556034E1,2.9098911E1,2.8166086E1,4.19817E1,1.3760083E0,7.9204464E0,4.4635586E1,3.8027186E0,2.5296194E1,2.6906E1,1.2600853E0],"tree_param":{"num_deleted":"0","num_feature":"8","num_nodes":"15","size_leaf_vector":"1"}},{"base_weights":[-1.8270416E-2,-4.3174416E-1,6.959774E-1,-1.2017465E0,-2.0943841E-1,-2.706861E-2,9.5316225E-1,-1.6761163E-3,-1.2753048E-2,-5.3099073E-3,2.4533737E-3,3.8285074E-3,-6.2560486E-3,1.0324837E-2,1.9694238E-3],"categories":[],"categories_nodes":[],"categories_segments":[],"categories_sizes":[],"default_left":[0,0,0,0,0,0,0,0,0,0,0,0,0,0,0],"id":78,"left_children":[1,3,5,7,9,11,13,-1,-1,-1,-1,-1,-1,-1,-1],"loss_changes":[4.3127968E1,1.5576231E1,9.984421E0,1.3459625E0,1.0799789E1,3.9255047E0,2.1678581E0,0E0,0E0,0E0,0E0,0E0,0E0,0E0,0E0],"parents":[2147483647,0,0,1,1,2,2,3,3,4,4,5,5,6,6],"right_children":[2,4,6,8,10,12,14,-1,-1,-1,-1,-1,-1,-1,-1],"split_conditions":[4.1512755E-1,-6.331401E-1,-2.2575417E-1,-1.7534513E0,9.566266E-2,-4.9034126E-2,1.8136821E0,-1.6761163E-3,-1.2753048E-2,-5.3099073E-3,2.4533737E-3,3.8285074E-3,-6.2560486E-3,1.0324837E-2,1.9694238E-3],"split_indices":[1,5,5,5,6,3,6,0,0,0,0,0,0,0,0],"split_type":[0,0,0,0,0,0,0,0,0,0,0,0,0,0,0],"sum_hessian":[1.4401927E2,9.14658E1,5.2553474E1,1.9503954E1,7.1961845E1,1.4023304E1,3.853017E1,1.5129168E0,1.7991037E1,4.2057335E1,2.990451E1,8.536957E0,5.486348E0,3.45417E1,3.98847E0],"tree_param":{"num_deleted":"0","num_feature":"8","num_nodes":"15","size_leaf_vector":"1"}},{"base_weights":[1.4807785E-2,-3.6580417E-1,6.6259533E-1,-8.584302E-1,1.1119635E-2,-1.0270964E-2,8.4536576E-1,-9.606784E-3,1.2123557E-2,-1.158078E-2,2.2627467E-3,-3.9488054E-3,7.932352E-3,5.3724926E-3,1.0549043E-2],"categories":[],"categories_nodes":[],"categories_segments":[],"categories_sizes":[],"default_left":[0,0,0,0,0,0,0,0,0,0,0,0,0,0,0],"id":79,"left_children":[1,3,5,7,9,11,13,-1,-1,-1,-1,-1,-1,-1,-1],"loss_changes":[3.7097725E1,1.7612633E1,6.856058E0,9.8683605E0,1.402116E1,4.2940497E0,2.2609081E0,0E0,0E0,0E0,0E0,0E0,0E0,0E0,0E0],"parents":[2147483647,0,0,1,1,2,2,3,3,4,4,5,5,6,6],"right_children":[2,4,6,8,10,12,14,-1,-1,-1,-1,-1,-1,-1,-1],"split_conditions":[4.1512755E-1,-4.538685E-1,-2.512158E-1,1.7093289E0,-6.331401E-1,1.3030192E0,1.1761775E0,-9.606784E-3,1.2123557E-2,-1.158078E-2,2.2627467E-3,-3.9488054E-3,7.932352E-3,5.3724926E-3,1.0549043E-2],"split_indices":[1,7,5,5,5,1,1,0,0,0,0,0,0,0,0],"split_type":[0,0,0,0,0,0,0,0,0,0,0,0,0,0,0],"sum_hessian":[1.4848082E2,9.380208E1,5.467874E1,4.0106647E1,5.3695435E1,1.1881393E1,4.2797348E1,3.873036E1,1.3762894E0,7.6641736E0,4.603126E1,8.3791485E0,3.5022447E0,1.8766321E1,2.4031027E1],"tree_param":{"num_deleted":"0","num_feature":"8","num_nodes":"15","size_leaf_vector":"1"}},{"base_weights":[-3.4404103E-2,-5.0504816E-1,5.24705E-1,-8.816801E-1,-1.1477117E-1,-3.3865443E-1,7.6878536E-1,-9.861895E-3,9.566982E-3,-1.1156786E-2,1.3486095E-3,-8.881536E-3,3.2379949E-3,2.0889682E-3,9.669687E-3],"categories":[],